,0,1,2,3,4,5,6,7,8,9,10,11,12,13,14,15,16,17,18,19,20,21,22,23,24,25,26,27,28,29,30,31,32,33,34,35,36,37,38,39
N4aa83428b16f4a0ab695f73e37528a99,-0.49569294,0.0113473525,0.2705909,-0.4599685,0.078649275,-0.2663863,0.34473315,-0.16551496,0.28815722,0.35365063,-0.0064166496,-0.024698686,0.29054478,-0.16048808,-0.2596493,-0.16644453,0.23465638,-0.034133255,-0.18809263,0.15703876,-0.115525916,-0.2619071,0.17592736,-0.16452904,-0.08982074,0.22168313,0.044218548,0.09083326,-0.5054332,-0.16440842,-0.2684042,0.106419004,-0.11517535,0.18628852,-0.1876035,0.35607514,0.47527465,0.12793486,0.24941947,0.23674132
family#Brother,-0.3650472,0.41385522,0.47112674,-0.19011928,-0.18189652,-0.19001283,0.29960474,-0.014183092,0.03204934,0.089494325,-0.07233491,0.07830464,0.0020653899,-0.38255036,-0.2234065,-0.2134599,-0.16345106,-0.10529279,-0.26172766,0.27113625,0.17798148,-0.37591645,0.022234462,-0.34834167,-0.3355339,0.29177386,-0.07108383,0.2695261,0.17938007,-0.08276368,-0.33114612,0.1650155,-0.07336097,0.30173954,-0.36373538,0.47538504,0.46749878,0.5268976,0.36822453,0.24392779
family#Child,-0.44328284,0.25848252,0.09903684,-0.42760473,0.1977086,0.096567705,0.4078443,-0.31358367,0.18587735,0.39229798,-0.008934913,0.055607997,0.393873,-0.31314117,-0.09338056,-0.2039005,-0.02739879,-0.045606654,-0.2846467,0.38126665,-0.36984134,-0.43604538,-0.12613113,-0.32097206,-0.09432221,0.45859116,0.020087706,-0.15052937,-0.064857684,0.08251403,-0.21613611,0.1912023,-0.19168958,0.2663335,-0.15093249,0.25145438,0.42228875,0.38214403,0.10076945,0.04466768
family#Daughter,-0.26237315,0.55677825,0.33066496,-0.016050762,0.29474995,-0.05936605,0.6387821,-0.23296455,0.054879792,-0.024862371,-0.15988597,0.040703226,0.6024122,-0.18666506,-0.010469308,-0.44890106,-0.2409796,0.08557485,-0.4053279,0.23789787,0.057897087,-0.37933883,-0.12817502,-0.41994795,0.2629564,0.2619805,-0.2840189,0.2825975,-0.027623367,-0.18362725,-0.4664591,0.26316595,-0.1755132,-0.20385036,-0.3911981,0.40363753,0.40013218,-0.14656945,0.38770187,0.2478891
family#F10F172,-0.23114972,0.115920074,0.21376,-0.100331806,-0.23980828,-0.07625623,0.08910367,-0.5557522,0.49184358,0.22707652,0.17528686,-0.45491403,0.1696885,0.014507828,0.09906086,-0.37809727,-0.12588957,0.016410328,-0.26661995,0.16027379,-0.35231417,-0.3828631,0.034426842,0.052729055,0.26275584,0.33767197,0.16249236,0.2629284,-0.3217438,-0.055778578,-0.14906952,0.32091177,0.20254491,-0.017101279,-0.35359287,0.4670843,0.27088287,0.06806855,-0.25162208,0.33841285
family#F10F174,-0.37472096,0.21484226,0.41918766,-0.2224839,-0.17229755,-0.33814368,-0.09255965,0.12673663,0.27721733,0.47126225,0.12262288,-0.20701994,0.15095901,-0.018494416,-0.08367505,-0.3647619,-0.19226658,-0.121937044,-0.46214366,0.18723467,-0.27049512,-0.22101337,0.33303562,-0.12834527,0.18816076,0.037907932,0.1045787,-0.050475027,-0.28462905,0.008174885,-0.15341292,0.110726066,0.13249372,0.32152164,-0.2657672,0.32920456,0.35112745,0.036691353,0.0842569,0.28894004
family#F10F175,-0.14255778,-0.0063154283,0.17252022,-0.30745158,-0.13603245,-0.04225468,0.15270554,-0.5253664,0.18761037,0.12565143,0.32704088,-0.028074276,0.11596573,-0.33921888,0.095547125,-0.34868503,0.12740378,-0.3229928,-0.014771514,0.18484463,-0.38984743,-0.071363874,0.031662945,-0.08609839,0.10466359,0.37752905,0.14478251,0.20979851,-0.3329956,0.35090354,-0.32548118,-0.025561422,0.30823308,-0.14082912,-0.23886557,0.39046302,0.06707791,0.088642724,0.17160285,0.03510538
family#F10F177,-0.29308632,-0.06582936,0.24041435,-0.29053432,-0.11085679,-0.015968528,0.2711967,-0.4999616,0.31282523,0.15600686,0.32458925,0.0661241,0.055037346,-0.31766683,-0.27967992,-0.3393905,0.07329081,-0.2977344,-0.023847988,0.4133525,-0.045582693,-0.016460381,0.07512076,-0.04998484,0.14049082,0.35415247,0.10038149,0.2163852,-0.34225133,0.3904505,-0.24194537,-0.014573836,0.3816791,-0.043743543,-0.29687816,0.40019125,0.122646615,0.027358722,0.20091662,0.08354484
family#F10F179,-0.4141764,0.13165852,0.034958363,-0.35071036,-0.10986692,-0.04388261,-0.008848766,0.19959916,0.19805534,0.5166201,0.20654283,-0.29931676,0.18073986,-0.28118652,-0.105446175,-0.29214132,0.17499855,-0.38181072,0.25380278,0.10045729,-0.31221932,-0.14654437,0.08881204,-0.049657244,0.063689254,0.26185495,-0.27002478,0.07519804,-0.45150176,0.04745832,-0.22763304,-0.0020793853,0.28344622,0.33562425,-0.30171221,0.37836602,0.25734475,-0.018810714,0.4218143,-0.06963083
family#F10F181,-0.25627965,0.14331159,0.23970851,-0.30826467,-0.25763848,0.017006295,0.08703449,0.20275691,0.18336824,0.5692629,0.18771659,-0.36253774,0.17486963,-0.13920374,-0.08037803,-0.28798184,0.04657298,-0.3020896,0.17759295,0.41672823,-0.45707384,-0.2020722,0.15256618,-0.033256155,0.044588245,0.39246172,-0.29718155,-0.052779965,-0.31494215,0.040089622,-0.109637655,0.03259071,0.19080569,0.37379318,-0.2937449,0.43059722,0.2753344,-0.12884577,0.20520402,-0.058559988
family#F10F185,-0.17791878,0.079347886,0.34522864,-0.265142,-0.16992395,-0.2006863,0.030363938,-0.1864197,0.40617493,0.36656147,0.09642221,-0.043746367,0.08100574,-0.21192728,-0.20980233,-0.19709413,-0.096575774,-0.1960873,-0.3330442,0.17390527,0.043412108,-0.36518678,0.13688868,-0.25480014,0.1385985,0.16198683,0.18490744,0.13872,-0.3828379,0.06783359,-0.12085413,0.04901713,0.26887205,0.19225062,-0.18371306,0.3990777,0.36730117,-0.02072046,0.19393006,0.2583114
family#F10F186,-0.4457219,0.017461574,0.07154967,-0.28601676,-0.2901308,-0.030675007,0.039324004,0.21532607,0.22114713,0.49800587,0.20315972,-0.27284327,0.1614963,-0.12504546,-0.28214404,-0.49731505,0.10408487,-0.07458691,0.2208015,0.298072,-0.4126625,-0.1030975,0.03486433,-0.087717414,0.19603895,0.4811676,-0.2498438,-0.00027166028,-0.39313206,0.05941665,-0.21785285,-0.01731612,0.3233482,0.28864136,-0.2990181,0.4245037,0.23574807,-0.014509955,-0.21850663,0.25683647
family#F10F189,-0.13425775,-0.09708149,0.5707734,0.030785315,-0.23148677,-0.31641284,0.10287937,-0.21196505,0.30552077,0.2692539,0.13392712,0.11244655,0.10400673,-0.057621658,0.012916574,-0.45285335,-0.15226643,-0.118739024,-0.31420803,0.116319634,-0.21811023,-0.50512993,-0.026040716,-0.113614246,0.2047209,0.07885479,0.17068623,0.17673378,-0.23519857,0.17464598,-0.30734825,0.1212558,0.18347842,0.2828617,0.026456175,0.3577344,0.3497573,-0.008821343,0.13954844,0.36869186
family#F10F191,-0.23515983,0.063914835,0.75303376,-0.1576087,-0.17994733,0.02171856,0.12594792,-0.18405196,0.34918842,0.25419578,0.07316847,0.08935951,0.11348992,-0.23003569,0.057494354,-0.31990093,-0.12588842,-0.2654808,-0.3500412,-0.017377045,0.08971779,-0.32744023,0.21763971,-0.52157235,0.1460592,0.372913,0.16407116,0.13146947,-0.47682282,0.21070978,-0.1602097,0.18111642,0.2938464,0.17459032,-0.09968168,0.38205183,0.33898318,-0.01976525,0.20326845,0.25222546
family#F10F192,-0.11924804,-0.25792232,0.027038142,-0.2838642,-0.1781845,-0.2412534,0.16291074,-0.3779791,0.18466982,0.22603491,0.27634305,0.099855706,0.0405311,-0.4227361,0.074023485,-0.53655905,0.18435593,-0.43635282,0.3785241,0.22739153,-0.2113459,-0.19692236,0.49231222,-0.19649751,0.1206068,0.45030525,0.14025538,0.28374574,-0.22655146,0.24393594,-0.2743276,0.016662274,0.26668698,0.018620068,-0.43322682,0.36672312,0.34322152,0.021815846,0.096759945,-0.016383978
family#F10F193,-0.15717806,-0.2666864,0.07400473,-0.29939649,-0.1908874,-0.2291724,0.42363968,-0.43111828,0.23151045,0.25503108,0.27405137,0.08840125,0.012828895,-0.3925343,-0.15612702,-0.52405304,0.04056231,-0.29326853,0.3825403,0.046567418,-0.061501775,-0.21508153,0.025371386,-0.28816333,0.10310665,0.2883665,0.113229014,0.13582182,-0.30706513,0.18662785,-0.1290873,0.021111522,0.31728294,0.13488403,-0.25951493,0.29014742,0.3342186,0.0068293437,0.35995016,-0.07934916
family#F10F195,-0.33033186,0.10025139,0.08342605,-0.42723474,-0.25684053,-0.16693573,0.028218476,0.14375275,0.32115838,0.45020583,0.20413512,-0.2792641,0.16279684,-0.10661387,-0.09317764,-0.32899535,0.067304574,-0.050020445,0.20173432,0.22481,-0.3959781,-0.095458515,0.106041275,-0.06253643,0.1110643,0.18433341,-0.28580338,-0.047541387,-0.2932468,-0.0035780808,-0.22696128,-0.0023343756,0.2914955,0.37365937,-0.3464859,0.41974285,0.26451275,-0.054572605,0.19938602,0.24316782
family#F10F198,-0.28870267,-0.075591885,0.33088887,-0.09099459,-0.23471941,-0.49707577,0.12456961,-0.33136395,0.26410574,0.2474234,0.12880187,0.22658913,0.2222333,-0.079791605,0.14243083,-0.4311654,-0.24628586,-0.08207445,0.09849719,0.05045532,-0.28444454,-0.31609556,0.23657791,-0.13057913,0.21951668,-0.054750163,0.22008926,0.22381052,-0.22886781,-0.043581624,-0.21940929,0.18482462,0.236854,0.1633087,-0.21937911,0.5030615,0.31151918,0.036004063,-0.124213316,0.28870708
family#F10F200,-0.3241985,0.06279347,0.14301129,-0.24703912,-0.14983232,-0.3017222,0.07430217,-0.20531148,0.26305145,0.30282983,0.08120419,0.10075852,0.13196816,-0.19041106,-0.07108053,-0.300836,-0.13149934,-0.18110323,-0.2998226,0.16635054,-0.15240599,-0.38016692,0.12208835,-0.29029894,0.10498451,0.12443267,0.16057575,0.13432595,-0.35280025,0.07969078,-0.17852794,0.27508983,0.25226876,0.105514385,-0.09667754,0.3832992,0.29107282,0.009715124,0.17255653,0.25294548
family#F10F201,0.025880482,-0.17138085,0.15754944,-0.32486463,-0.12330001,-0.09184986,0.21665254,-0.00052178814,0.14190246,0.51665014,0.32086086,0.17095439,0.037731968,-0.27787337,-0.24396043,-0.42799273,0.16058199,-0.4097727,0.19683717,0.1773182,-0.2916184,-0.25816387,-0.023099178,-0.027352182,0.14620547,0.28425288,0.18945709,-0.03172583,-0.14779225,0.18072326,-0.26454893,0.34029013,0.22798334,0.18135692,-0.27882528,0.47080782,0.22592452,0.20522232,0.1890008,-0.020418908
family#F10M171,-0.27824375,0.13610151,0.14311433,-0.08544313,0.1640019,-0.24731022,-0.09598183,-0.51889247,0.21099114,0.18685544,0.14906086,-0.49792442,0.12455479,-0.014818175,-0.10908132,-0.37162462,-0.24772982,-0.5507034,0.19116822,0.1893134,-0.21338898,-0.40533355,0.06416982,-0.056111492,-0.14799337,0.1375159,0.30695593,0.27754593,-0.18209422,-0.15380457,-0.26036206,0.34930134,0.2003797,0.05864901,-0.45734048,0.3791684,0.33764324,-0.00039304607,-0.21526624,0.2830303
family#F10M173,-0.35776874,0.1568984,0.05546686,-0.2493171,0.18863362,0.060867526,-0.05639942,0.1682296,0.12280365,0.46389383,0.22180466,-0.34052512,0.18921314,-0.00739789,-0.12372477,-0.3513296,0.04924924,-0.19809145,0.21789996,0.29136017,-0.44891354,-0.08968688,0.20286758,-0.028745726,-0.14719345,0.4454391,-0.20892385,-0.048121225,-0.4541404,-0.03885919,-0.23294671,0.0072204955,0.21618043,0.53694075,-0.35296237,0.28162014,0.334723,-0.32125768,0.13606997,0.15046658
family#F10M176,-0.32508335,0.077226214,0.16564128,-0.34447253,0.08413676,-0.19021183,-0.025795387,-0.12335655,0.18190488,0.2971067,0.12981048,-0.00731368,0.10916804,-0.24942689,-0.19336069,-0.31248862,-0.13678135,-0.36328822,-0.33306703,-0.022053687,0.0149552785,-0.32834417,0.12250167,-0.29221,0.032844,0.086031355,0.25166458,0.21413004,-0.25732076,0.05289097,-0.22383913,0.025225798,0.22888401,0.23916563,-0.23943147,0.3110425,0.4184955,-0.11881792,0.21059592,0.25719324
family#F10M178,-0.25578535,0.122998856,0.09067302,-0.3080694,0.08016833,-0.29506224,0.013427382,-0.1607856,0.11307085,0.27691215,0.147733,0.027415877,0.15835826,-0.29703104,0.05932166,-0.29064703,-0.19432518,-0.30632642,-0.29265067,0.1690757,-0.30461383,-0.24547224,0.14072004,-0.24558699,0.008347763,0.13843891,0.27013636,0.23613404,-0.109390035,-0.010382869,-0.32586107,0.06756278,0.2183414,0.21310551,-0.07086547,0.34558186,0.3985862,-0.070257746,0.18264517,0.2007437
family#F10M180,-0.32362518,0.18424264,0.25385088,-0.30811733,0.05475509,-0.17293112,-0.13669007,-0.18532696,0.0009494461,0.33428636,0.20110436,-0.18801494,0.1949135,-0.24826759,-0.043382138,-0.2594251,-0.10369479,-0.33349612,-0.36807433,-0.059299853,-0.17241907,-0.3493978,0.08741459,-0.30023095,-0.025158342,0.1850955,0.18142019,-0.06246774,-0.2098849,0.05211908,-0.20872708,0.0811534,0.20474343,-0.030816633,-0.18084085,0.36239138,0.41537648,-0.13974938,0.18627769,0.25951636
family#F10M182,-0.22785223,0.16027963,0.2415983,-0.21695864,0.11473353,-0.38571182,-0.16478091,0.0021854332,0.24238628,0.37685442,0.10439635,-0.2527006,0.19470456,-0.015536075,-0.038383823,-0.28979346,-0.15536848,-0.43143728,-0.17530529,0.27304438,-0.14476696,-0.38569742,0.18191452,-0.14202246,-0.2386497,0.14253616,0.20584407,-0.12658222,-0.16247278,0.12333349,-0.14655991,0.11044623,0.15261318,0.25062415,-0.25254577,0.30933887,0.29556313,-0.11652951,0.05876822,0.12217351
family#F10M183,-0.0121175945,0.01827238,0.25261918,-0.24569905,0.0702006,-0.02608719,0.13110588,-0.47645828,-0.055694766,0.0032304656,0.4033803,-0.041549124,0.17481543,-0.115264714,-0.14877588,-0.23655684,0.12064839,0.061150182,-0.039108787,0.4773877,-0.40750453,-0.1301416,-0.010960319,-0.16289772,-0.039089464,0.3048353,0.35058045,0.132829,-0.38113675,0.0715038,-0.23827972,-0.038252316,0.26021013,0.0837945,-0.31708544,0.43308762,0.29953945,-0.29067367,0.17764781,0.17410241
family#F10M184,0.0017385992,0.050532706,0.038702164,-0.3146905,0.116221614,-0.08166597,0.104280815,-0.3706692,0.0020229113,0.03221382,0.29925752,-0.110638656,0.21245347,-0.16170232,-0.009874743,-0.23312268,0.0909968,0.045160316,-0.041938856,0.33161315,-0.4859576,-0.15214598,0.065360956,-0.15351963,-0.044850722,0.34485903,0.26394516,0.21189274,-0.12544908,0.069372416,-0.27190804,-0.007714578,0.33579206,0.043264225,-0.24550681,0.52942777,0.29245314,-0.21385568,0.1861137,0.07186867
family#F10M187,-0.5077825,-0.012279418,0.43242964,-0.40971023,0.23819916,-0.39689732,-0.15511377,0.0075265653,0.3617517,0.34621543,0.19549814,-0.08868766,0.04941079,-0.027175209,-0.07823553,-0.6148556,-0.18027747,-0.440443,0.09996853,0.23786393,-0.16921158,-0.2164032,-0.00042277505,-0.22169507,-0.20056087,0.009434426,0.14950985,-0.07473348,-0.2137432,0.038195506,-0.27546126,0.048594035,0.24543719,0.27860844,-0.08709588,0.36788294,0.31388023,0.011527147,-0.18183814,0.45475543
family#F10M188,-0.10868659,-0.22482523,-0.033041522,0.075813994,0.1675133,-0.037130084,0.08269501,-0.38992107,0.12490684,0.2877252,0.2825541,0.09994605,0.1499931,-0.04981176,-0.187897,-0.53613716,0.039643094,-0.10212751,0.4032666,0.2067532,-0.2462705,-0.14559546,0.061069876,-0.31522405,-0.17930676,0.42702055,0.21636885,0.15416843,-0.25811252,0.13217025,-0.31969845,0.013258062,0.18443234,0.20736021,-0.37732705,0.33280358,0.37841952,-0.3386977,0.14670339,0.20591211
family#F10M190,-0.20841928,-0.03925044,-0.20923842,-0.5537896,0.13040058,-0.3199101,0.037115853,-0.06301298,-0.022661533,0.09141217,0.24581255,0.13078403,0.15896223,-0.26333043,-0.29788175,-0.4113411,-0.06172075,0.0059884116,0.0033030207,0.078571446,-0.53588885,-0.48228243,0.116690524,0.0907158,0.08664729,0.088425875,0.44410273,0.018878074,-0.08431079,-0.018941773,-0.23713265,0.2083649,0.24420375,0.02336413,-0.35032475,0.3612278,0.31878847,-0.13444328,0.25275013,0.059448294
family#F10M194,-0.30213663,-0.037250042,0.2260191,-0.3530662,0.10639676,-0.19841295,-0.10062027,-0.15702601,0.10879253,0.2737797,0.17251416,0.09569183,0.120789744,-0.2951379,0.0031226368,-0.34337047,-0.10352767,-0.3547219,-0.33448187,-0.05334231,-0.20974188,-0.39248353,0.064090975,-0.23831251,-0.009505166,0.265322,0.40779546,0.26847333,-0.09526804,0.09514793,-0.19001116,0.106751084,0.17741263,0.02748562,-0.03959561,0.44918233,0.41780365,-0.041424334,0.18632153,0.22309786
family#F10M196,-0.3890581,0.17526153,0.28673202,-0.28176695,0.22367519,-0.12406879,-0.2086683,0.0074756006,0.26511437,0.19218318,0.18333602,-0.05817009,0.09352563,0.07297623,-0.07250257,-0.37316433,-0.091027945,-0.3950133,-0.22884585,0.22066975,-0.17524451,-0.33617795,0.06709633,-0.23627378,-0.33030865,0.23871887,0.09670762,0.0032197274,-0.19967666,0.10810199,-0.1620654,0.12067814,0.19844209,0.3008022,-0.17250574,0.34404874,0.38233262,0.0069922656,0.08861182,0.42408463
family#F10M197,-0.26389736,-0.07193519,0.018090092,-0.036130115,0.18089516,0.09174543,0.09405771,-0.38402215,0.16876604,0.2850808,0.19004147,0.15743998,0.10363071,-0.11112932,-0.08989651,-0.39677796,-0.14385787,-0.1255428,0.0321315,0.076682456,-0.2495249,-0.07150865,0.19511808,-0.27737242,-0.20125744,0.49262804,0.3755513,0.15299769,-0.33248818,-0.17655522,-0.19981761,0.10390088,0.31357542,0.035920046,-0.34812626,0.47758582,0.34015816,-0.20330639,-0.13610396,0.09682086
family#F10M199,-0.035298917,-0.14363559,0.24833214,-0.3276179,0.119326964,-0.013763227,0.17947295,0.0036168615,-0.015010979,0.34597546,0.2866274,0.15980768,0.19256534,-0.1628886,-0.17654978,-0.41844216,0.04368257,0.054851804,0.23739293,0.26196644,-0.28782374,-0.24245346,0.03277761,-0.051840086,-0.0642582,0.385161,0.2759813,-0.009407472,-0.16721028,0.05933055,-0.24564004,0.31549284,0.15828393,0.29375413,-0.24347508,0.4324182,0.28223652,-0.3567608,0.26782125,0.07224504
family#F10M202,-0.10871234,-0.0008606361,0.18515399,-0.288593,0.07413001,-0.1620987,-0.11974506,-0.19460225,0.34171703,0.34026492,0.0874879,0.108543955,0.22604945,-0.25926894,0.050015155,-0.33906177,-0.16674782,-0.33459544,-0.29878616,0.02679813,-0.10525206,-0.30025235,0.1514722,-0.28818676,-0.07726546,0.24824162,0.24852495,0.113581404,-0.28530833,0.033409584,-0.2448835,0.28551623,0.22302455,0.0959359,-0.1661939,0.40616465,0.3365381,-0.06564823,0.16421695,0.24650057
family#F1F2,-0.30753654,0.11219667,0.14935586,-0.17110085,-0.17602016,-0.3477499,0.1627434,-0.17552403,0.39217088,0.34117696,0.08846613,-0.3589318,0.13334036,0.051651698,-0.102738835,-0.42798042,-0.08711851,0.07289911,-0.26769796,-0.026761536,-0.17184187,-0.27715468,-0.03363342,-0.051247228,0.21767119,0.15519835,0.11743061,0.17592621,-0.36563212,0.17478365,-0.27221835,0.41827843,0.3183169,0.2685268,-0.0508107,0.37018707,0.28150442,-0.0047681704,0.26649594,0.2596876
family#F1F3,-0.46728498,0.12112903,-0.054838113,-0.32464227,-0.15422106,0.112175375,0.20639394,-0.18263139,0.2686672,0.12993804,0.26534367,-0.25331804,-0.0887089,-0.06851727,-0.27752918,-0.533574,-0.08399323,-0.16380195,-0.13026917,0.23845977,-0.19575588,0.021152858,0.3289626,-0.0048165536,0.18506576,0.47696647,0.14366299,0.06788364,-0.33638695,0.052516334,-0.15764117,0.13795957,0.28092465,0.10581039,-0.33238897,0.4242055,0.33221945,-0.038532782,0.08157559,0.25939503
family#F1F5,-0.29046223,-0.1232801,0.52131647,-0.3469268,-0.20312732,0.06070205,0.17379393,-0.15007482,0.08683496,0.79706585,0.37105805,-0.008336863,0.029425357,-0.3256331,-0.12245044,-0.47314817,0.01978571,-0.3803265,-0.06202982,0.2886016,-0.19447829,0.059185427,-0.012162356,-0.16406365,0.10294178,0.5125799,0.019488625,0.21614882,-0.20472476,-0.240504,-0.26946813,0.06627537,0.3121633,0.016123194,-0.27328968,0.41301045,0.037685025,-0.062750265,0.2906611,0.0327047
family#F1F7,-0.25611636,-0.12942538,0.17679305,-0.23138216,-0.22986436,-0.11199351,0.0692228,-0.2654432,0.21873948,0.8400414,0.22009057,-0.008144988,0.11175552,-0.31605235,-0.18430598,-0.4347376,0.005111993,-0.34419265,-0.04029727,0.10737655,-0.26641014,0.05220534,0.004214429,-0.14126013,0.08267181,0.4116081,0.070791215,0.060317256,-0.32953152,-0.23410125,-0.3614628,0.060405444,0.3411293,0.14802669,-0.32748464,0.35034862,-0.014714533,-0.036311917,0.1546812,0.042246584
family#F1M1,-0.2588636,0.109738335,0.19231807,-0.06560959,0.16458413,-0.23048796,-0.017708085,-0.211777,0.104957685,0.30384722,0.22852425,-0.28712714,0.07689138,0.059831586,-0.13468735,-0.38858187,-0.21658738,-0.40612674,-0.027971422,-0.0569165,-0.27074477,-0.25589782,0.013630839,-0.19356391,-0.19609487,0.3418535,0.25689876,0.036691807,-0.24078853,0.045646332,-0.17638914,0.43462962,0.26907575,0.27830204,-0.16017053,0.34433088,0.28603244,-0.022329632,0.21569945,0.33908325
family#F1M4,-0.31019711,0.16050482,0.34703088,-0.36493805,0.15003124,-0.4265478,0.022466607,-0.13204569,0.20668623,0.10850805,0.18818706,-0.2055192,0.035458736,0.0601777,0.0631749,-0.47617364,-0.20733485,-0.2932428,-0.19402717,0.20974095,-0.19215849,-0.05356716,0.44104826,-0.098951,-0.1050362,-0.004336357,0.31177872,0.08386946,-0.16354951,-0.13443129,-0.23248722,0.16088112,0.10645177,0.27848577,-0.15192147,0.41289866,0.40414816,-0.024606239,0.122683525,0.34018365
family#F1M6,-0.32226726,0.10963256,-0.05257369,-0.26902544,0.0777079,-0.37277073,-0.073413625,-0.20992225,0.3566233,0.32842577,0.105961286,-0.0007128478,0.17471749,-0.26684347,-0.08649008,-0.32149035,-0.18292274,-0.2958552,-0.31607035,0.079562336,-0.042130366,-0.17637274,0.1259574,-0.23979186,-0.03072972,0.08503589,0.23880081,0.10747861,-0.3454119,-0.018416194,-0.32790092,0.10159229,0.21977636,0.12781066,-0.20138726,0.36334366,0.35303324,-0.10287824,0.15301594,0.26129895
family#F1M8,-0.31155574,0.054798037,0.16840856,-0.34237534,0.08401197,-0.2452942,-0.08758678,-0.096335754,0.15709335,0.43705907,0.22584234,0.020009909,0.17245789,-0.20715204,-0.019228619,-0.3508862,-0.17358446,-0.38251084,-0.29750648,0.020429738,-0.10431667,-0.26450038,0.21867591,-0.2545128,-0.067042455,0.1570603,0.27424946,0.2652357,-0.25103018,-0.020878049,-0.19829457,0.13536705,0.110101774,0.080777995,-0.111746624,0.42090994,0.44858545,-0.077884406,0.20578721,0.20751275
family#F2F10,-0.46473125,0.13667046,0.4199466,-0.35916385,-0.31710148,-0.35571778,0.07832835,-0.0051536625,0.53027505,0.49246094,0.21734336,-0.39965653,0.17060031,0.06382668,-0.37094814,0.08249652,-0.079496585,-0.019495964,-0.43456966,0.086445525,-0.12583278,-0.5678169,0.02813899,-0.2349247,0.1387821,0.25251257,0.20219213,0.18766677,-0.34615627,0.08606455,-0.24114208,0.079288304,0.07359206,0.12571515,-0.13947856,-0.34390056,0.20576751,-0.002272633,0.32243,0.38983804
family#F2F12,-0.42327127,0.23953538,0.47365764,-0.16094528,-0.16206108,-0.43750915,0.13074051,-0.23635243,0.30195737,0.14269555,0.21523088,-0.29762942,0.119598135,0.036681466,0.07327712,-0.036593862,-0.15586993,0.0097868955,-0.40499702,0.22406517,-0.23177674,-0.5136529,0.1333839,-0.050330393,0.21009445,0.122197114,0.20594718,0.2436199,-0.16259484,0.22783875,-0.06539697,-0.1335163,0.15052477,0.34867442,-0.44754726,0.14923654,0.29647785,-0.037616547,0.17573729,0.4671055
family#F2F14,-0.21497631,0.21013585,0.30897427,-0.29196256,-0.14798036,-0.17501654,0.111592606,-0.1970174,0.36436197,0.28314024,0.049227748,0.029535288,0.1130212,-0.23770286,-0.03243312,-0.101280026,-0.14139041,-0.22102171,-0.3582003,0.050420336,-0.007222032,-0.44552305,0.18085714,-0.37558424,0.1376632,0.20027757,0.18698643,0.12512966,-0.31431535,0.115833305,-0.21874194,-0.10899512,0.2572038,0.12669823,-0.2236922,0.30569205,0.37897453,-0.024841303,0.2858428,0.25617728
family#F2F15,-0.1254582,0.27531132,0.18694375,-0.2538431,-0.30116725,-0.13947055,0.36179048,-0.21620469,0.25234598,0.3331262,0.22853017,0.11218208,0.041775443,-0.15545481,-0.16092125,0.029715486,0.1721629,-0.32123825,-0.04260868,0.23154873,-0.4267791,-0.21872191,0.0017640903,-0.10154987,0.10942574,0.32237658,0.19166833,0.123894125,-0.21209863,-0.3003958,-0.22874022,-0.26358643,0.42105436,-0.012730061,-0.14579296,0.2642252,0.20288187,0.098599255,0.005939911,0.21663512
family#F2F17,0.07310936,0.23288949,0.21337909,-0.31839895,-0.13920316,-0.09162082,0.31782418,-0.094977185,0.09091145,0.5938584,0.30299345,0.3471998,-0.06947097,-0.2521076,-0.17543687,-0.16223042,0.12829725,-0.47992635,0.06926602,0.17129177,-0.28372929,-0.0489459,0.10960011,-0.19740461,0.059290446,0.35929242,0.161997,-0.019611124,-0.17898832,0.062098216,-0.17859595,0.014197335,0.28070658,0.17841724,-0.45772848,0.3686526,0.33958572,-0.0093755275,0.30437768,0.016745484
family#F2F19,-0.4611301,0.20966475,-0.008384977,-0.16991158,-0.2040355,-0.116101764,0.22702773,-0.3206282,0.45195106,0.13251361,0.131414,0.0329198,0.27295023,-0.105698295,0.09686427,0.23192044,0.11409668,-0.040928256,-0.22578602,0.16585262,-0.24299943,-0.4250726,0.19977525,-0.16924931,0.09196456,0.4818324,-0.15506318,0.23784874,-0.40694928,0.2740082,-0.37736908,-0.21248525,0.55278254,0.2241604,-0.49020994,-0.15189056,0.2916704,0.043526784,0.2804797,0.09730583
family#F2F22,-0.21571371,0.13524364,0.2740517,-0.25208387,-0.2283378,-0.5564545,0.19854155,-0.14472498,0.44383514,0.3278689,0.11742921,0.3042467,0.07268646,0.0027320995,0.15532634,0.11104774,-0.048064455,0.12208403,-0.3423158,0.1306336,-0.14229088,-0.42907068,0.21754904,-0.2589573,0.12668397,-0.013921097,0.11744056,0.07449951,-0.35863948,0.09858699,-0.36671183,0.1465785,0.16982353,0.33487234,-0.32141557,0.00035954826,0.399651,-0.017553546,0.332094,0.43427795
family#F2F24,-0.2712804,0.054213934,0.1976668,-0.26498097,-0.22305943,-0.1843269,0.11385823,-0.33331075,0.2762423,0.2862286,0.08513417,0.17245343,0.19439371,-0.012502496,-0.19619569,0.08476901,-0.13119048,-0.100161664,-0.29364502,-0.047918633,0.0024427585,-0.5233808,-0.087534614,-0.2327342,0.15736592,0.25286362,0.14060791,0.25472978,-0.44192752,0.022672944,-0.22640063,0.4575212,0.38274804,0.20291963,0.08090769,0.35529646,0.33696038,-0.028794756,0.15196857,0.24318771
family#F2F26,-0.43387815,0.21929371,0.31441364,-0.25359285,-0.01895073,0.041078907,0.0055311024,-0.3090266,0.407653,0.06109036,0.19400533,-0.047170144,0.20717117,-0.2745531,0.16702753,0.21782191,0.08630613,-0.5131298,-0.24499753,0.24403435,-0.23882127,-0.41774938,0.22138807,-0.14961052,0.03842226,0.5231457,-0.10249141,0.3494509,-0.4760894,0.3385745,-0.30152294,-0.17425877,0.42066592,0.11279741,-0.45282423,-0.04072593,0.1619511,0.07226956,0.25554904,-0.07488696
family#F2F28,-0.3951727,0.22640334,0.17062834,-0.28819776,-0.17092787,-0.046339095,0.1507813,-0.35384274,0.5037531,0.15546483,0.15846287,-0.05728661,0.10064251,-0.12304894,0.26215437,0.23423499,0.08614434,-0.013203148,-0.19888926,0.13345669,-0.44838944,-0.34828243,0.33996826,-0.14698406,0.10539184,0.40542674,-0.12613456,0.31771505,-0.35099337,0.2683402,-0.29124412,-0.17956705,0.43592754,0.14512601,-0.46760467,-0.05242713,0.32723778,0.022570021,0.35130224,0.093673624
family#F2F30,-0.4299363,0.25237885,0.33424884,-0.23698375,-0.30006248,-0.03735893,0.37666714,-0.09530431,0.3309466,0.23476525,0.29609138,0.26281458,-0.08375896,-0.11716973,-0.20552233,0.109623805,-0.019685304,-0.016702048,-0.33307675,0.29319707,-0.20504498,-0.24091728,-0.1231805,-0.1739639,0.16175628,0.5510762,0.14128189,0.06702379,-0.16601433,0.0263879,-0.29205194,0.01151208,0.3751668,0.30771887,0.08786566,-0.021226345,0.048882432,0.013216576,0.29712293,0.17724615
family#F2F33,-0.14707093,0.105633795,0.06302616,-0.31298545,-0.29986945,-0.22732005,0.18293183,-0.24226983,0.21019836,0.43773258,0.23245358,0.24492319,-0.0006160699,-0.09566901,0.44959643,0.09748546,0.11735961,-0.3455482,-0.23668769,0.05441707,-0.31649804,-0.15630251,0.34193155,-0.08537151,0.12719268,0.34775078,0.123829134,0.121475734,-0.19543792,0.08642612,-0.22880594,0.25990805,0.41540655,-0.024323877,-0.5064161,0.2061353,0.3566232,0.12447899,0.35962847,-0.008262176
family#F2F36,-0.44633737,0.2732601,0.017429875,-0.21412069,-0.1701592,-0.14701316,0.15787959,-0.30663887,0.4198626,0.16935551,0.17140555,-0.041889865,0.109425835,-0.04386481,-0.2037501,0.2952337,0.11488795,-0.27719548,-0.22096364,0.2974885,-0.23593313,-0.38649118,0.18242984,-0.21078092,0.015837897,0.24965464,-0.16459854,0.34558204,-0.38891914,0.31638834,-0.2697741,-0.13895941,0.28099164,0.30423713,-0.60978514,-0.058135167,0.43907696,0.019733442,0.22143239,-0.008812709
family#F2F38,-0.4212289,0.13845778,0.014320979,-0.2927442,-0.18541333,0.011995352,0.17397346,-0.05015164,0.0081476625,0.32455325,0.31549197,0.2020081,0.04784702,-0.32860798,-0.19706173,0.16456732,-0.053422388,-0.37929875,-0.24433774,0.33560407,-0.21044731,-0.33728912,-0.14077492,-0.1859331,0.103210084,0.5259001,0.11845836,0.086176075,-0.26699722,-0.04021599,-0.347278,0.0579476,0.3774486,0.10150873,-0.22177199,0.36913788,0.033157226,0.038539145,0.25026688,0.122073695
family#F2M11,-0.42423916,0.28438434,0.07047748,-0.0040363153,0.3242937,-0.02603906,0.048717156,-0.28683722,0.4481222,0.0029129393,0.1839806,-0.19359614,0.1763413,0.12135539,-0.08013069,0.20685773,0.017586265,-0.3047338,-0.19584921,0.3492481,-0.28926525,-0.41362843,0.19563062,-0.111239344,-0.34058318,0.4844446,-0.066021286,0.21057166,-0.3758398,0.21989597,-0.26592836,-0.17270516,0.2490698,0.31738958,-0.6052487,0.016318256,0.33629107,-0.29731777,0.10606665,0.2005821
family#F2M13,-0.12988448,0.26258323,0.045680944,-0.50639427,0.16286753,-0.12464745,0.093352824,-0.078527175,0.095048964,0.3963939,0.34381214,0.0922389,0.24081239,-0.16340762,-0.14486378,0.044473246,0.12812693,0.07797881,-0.09278318,0.212083,-0.4044747,-0.22222371,0.059814308,0.015569525,-0.030180834,0.34218937,0.3193812,0.23861592,-0.10814428,-0.34677052,-0.28165472,-0.18692304,0.25004682,0.0665531,-0.17738456,0.25857332,0.341783,-0.33831736,0.30610543,0.008063056
family#F2M16,-0.22337955,0.31479144,0.22807983,-0.3003159,0.1372559,-0.08646038,0.0018560374,-0.2382219,0.29063025,0.17185807,0.1464294,0.07993004,0.096054815,-0.034045517,-0.09542784,-0.20139568,-0.16899963,-0.34151158,-0.010116035,0.16889426,-0.10800876,-0.5140264,0.22842246,-0.08865288,-0.19041961,0.25050122,0.3488823,0.13287988,-0.27616343,-0.030195404,-0.09996508,-0.19590421,0.34041703,0.13913022,-0.06618865,0.36401173,0.2333141,0.02630225,0.014947519,0.2905897
family#F2M18,0.055997226,0.19276781,0.15104477,-0.23740792,0.08598005,-0.06865452,0.17842966,-0.081250496,0.11460487,0.40949792,0.37681037,0.34014523,0.18114318,-0.12275143,-0.18089983,-0.26039666,0.135282,0.026939547,0.07449889,0.3081182,-0.3841156,-0.020277638,0.14276429,-0.13031943,-0.080752894,0.32545555,0.28510898,0.031887777,-0.19872949,-0.08771829,-0.27643105,0.022508191,0.055384833,0.2600616,-0.48762757,0.40702686,0.35503262,-0.33448395,0.20203687,0.02738725
family#F2M20,-0.4062415,0.10820922,0.33097798,-0.22260967,0.20233479,-0.47383296,0.07353344,-0.22883832,0.16670786,0.21897008,0.2150507,0.18690404,0.10409477,0.08205012,-0.12221168,0.11370868,-0.09872664,-0.4371109,-0.15860316,-0.03003751,-0.19781831,-0.66101384,0.19049507,-0.16954885,-0.26198754,0.025336362,0.14679326,0.2179681,-0.11134062,-0.00969984,-0.23169206,-0.10800659,0.4005033,0.14968146,-0.32724237,-0.022034999,0.30580682,0.040655732,0.21185355,0.34454754
family#F2M21,-0.26674077,0.26832366,0.25091672,-0.42382362,0.20962296,0.09242743,-0.057651103,-0.048245277,-0.014870562,0.27509293,0.3428372,0.27724168,-0.16179925,0.018803345,-0.20745635,0.22569767,-0.07921557,-0.068199016,-0.15549184,0.2088144,-0.31069982,-0.42778602,0.16487493,-0.11059616,-0.27818272,0.5784741,0.37754175,0.09112747,-0.16154741,-0.06942598,-0.46093965,0.07146534,0.07797858,0.15435927,-0.27054155,0.047189705,0.42548874,-0.20708527,0.29975307,0.34254405
family#F2M23,-0.21463642,0.072776556,0.20231222,-0.23527129,0.23463733,-0.2061027,-0.10911087,-0.32002828,-0.06301923,0.26732308,0.26546177,0.236303,0.1322845,-0.081680715,-0.18349692,0.15643974,-0.14805204,-0.043311357,-0.37258783,0.03324302,-0.4205725,-0.3975355,-0.07942447,-0.11798106,-0.25526452,0.33395532,0.36843166,0.19741184,-0.24181263,0.02318523,-0.15403013,0.5446592,0.58802104,0.12190494,-0.049537685,0.37828684,0.094734535,-0.15963712,0.10357356,0.1427846
family#F2M25,-0.20064105,0.12585993,-0.079219654,-0.34760132,0.09651487,-0.1173653,0.03889524,0.04402803,0.024477525,0.34371597,0.27658895,0.020599637,-0.119107135,-0.3136965,-0.35679704,0.031077566,-0.05581905,0.044377662,-0.031315852,0.25745088,-0.24076463,-0.47758973,0.4441402,-0.10736584,-0.05648782,0.2706083,0.33279496,0.05078725,-0.4333798,0.091962084,-0.37057498,0.38687447,-0.042311914,0.1325563,-0.4963618,0.61021316,0.33084682,-0.2381301,0.19450924,0.18453442
family#F2M27,-0.34633002,0.23526621,0.031991296,-0.2960389,0.033732966,-0.37065926,-0.055900767,-0.15115273,0.17742607,0.32450175,0.25971892,0.0011341721,0.17222483,-0.22341056,-0.21454167,-0.04728124,-0.13643073,-0.31790593,-0.27486694,0.078662045,-0.14775926,-0.52847314,-0.01024227,-0.24486263,-0.01101926,-0.076559566,0.14746316,0.23058623,-0.18285185,0.058856077,-0.3192718,0.011170675,0.18402442,0.12939517,-0.4352489,0.14267322,0.38255695,-0.120258994,0.14433952,0.26523373
family#F2M29,-0.526794,0.16695328,0.15343839,-0.29930657,0.1727508,-0.39426637,0.03207717,-0.2596424,0.2899283,0.28595936,0.22904283,0.016236607,0.032815773,0.066292584,-0.26753423,0.009049149,-0.23291498,-0.41758773,-0.101051904,0.023427919,-0.0032669522,-0.42429608,0.2423599,-0.2552217,-0.22295089,0.074417874,0.16898541,0.2617512,-0.07573266,-0.028459545,-0.26475373,-0.020866137,0.2184768,0.18725602,-0.43733028,-0.03540965,0.46279237,-0.104782425,0.3008905,0.41854173
family#F2M31,-0.41774035,0.23362996,0.21417263,-0.23192221,0.18868458,-0.3442703,0.0268108,-0.13672936,0.3382901,0.20268801,0.17036077,0.2642534,0.07212677,0.04393721,-0.34798828,-0.0017065364,-0.20842044,-0.36599538,-0.2700984,0.1899719,-0.14332652,-0.43096673,-0.044055384,-0.18375833,-0.24086668,0.046805646,0.20873632,0.20665888,-0.20761488,0.009013742,-0.3059466,0.09193344,0.3045539,0.24160826,0.16110049,0.012242277,0.20893666,-0.0049641356,0.28770667,0.3478863
family#F2M32,-0.17246367,0.10406967,-0.034520876,-0.28692412,0.085517466,-0.040660806,0.071872115,-0.18990798,0.16572061,0.35628846,0.27439627,0.2484713,0.17527083,-0.15048313,-0.29442894,0.0689523,0.15615536,0.023773378,-0.2008007,0.34937283,-0.181532,-0.11350175,0.38776213,-0.23584458,-0.14311102,0.36495852,0.30552444,0.19134662,-0.28867748,-0.070269704,-0.25948155,0.22159383,0.01995551,0.03272241,-0.6500707,0.13855706,0.45964703,-0.38709998,0.16148482,0.1278986
family#F2M34,-0.2930283,0.11740756,0.13530329,-0.21074703,0.1344502,-0.1934253,-0.06742551,-0.25103304,0.35764506,0.34271306,0.12269408,0.17028904,0.2001952,0.056121204,-0.2162807,0.07667816,-0.21461742,-0.4029321,-0.15791215,-0.03162317,-0.05045355,-0.37587026,0.1596252,-0.27451387,-0.29429448,0.14664719,0.20997444,0.18842988,-0.19738582,0.113360845,-0.22692573,0.23424742,0.37602535,0.09915014,-0.13198544,0.2821358,0.38443688,-0.05938248,0.36162248,0.13704123
family#F2M35,-0.23521262,-0.0029811072,0.31977865,-0.2802946,-0.0044019865,-0.042897243,-0.007117804,-0.09837957,0.06559293,0.07748631,0.2653068,0.10857151,-0.06776107,-0.31863204,-0.3718339,0.053372867,-0.07061105,-0.0826742,-0.30282345,0.55034816,-0.22460583,-0.26805663,0.007818163,-0.13597345,-0.10910915,0.4023566,0.41379243,0.09068589,-0.29366082,-0.028343853,-0.35934973,0.30922905,0.10635463,0.3758815,-0.17096226,0.5595309,0.19396704,-0.2707909,0.13396522,0.1668829
family#F2M37,-0.3316237,0.099671595,0.44732013,-0.35371044,0.1452027,-0.19249836,-0.16981907,-0.186681,0.20860703,0.21415219,0.24710111,-0.048809506,0.09853293,0.067323394,0.07957302,0.1258754,-0.2266536,-0.34005186,-0.3390676,0.16606697,-0.18232742,-0.61746997,0.19309354,-0.1935383,-0.13256882,0.31939375,0.23880187,0.23653723,0.0034007386,0.07100477,-0.13420476,-0.020431858,0.14646871,0.14554429,-0.2422442,0.1897004,0.4112257,-0.051126014,0.3361029,0.24483627
family#F2M39,-0.33800185,0.15136681,0.4831129,-0.36205316,0.12462886,-0.28084415,-0.035178058,-0.21163903,0.075351804,0.27816772,0.11433184,0.060876183,0.1247326,-0.24017271,0.030744195,-0.03959321,-0.15981594,-0.34562057,-0.31977326,0.079454295,-0.1452114,-0.36399546,0.20392081,-0.13876368,-0.06094017,0.05703652,0.26715776,0.19166736,-0.3423939,0.060071718,-0.23256265,0.05048919,0.18161097,0.08409802,-0.19524686,0.3345641,0.37606305,-0.094663754,0.20724182,0.25854853
family#F2M9,-0.46013907,0.18438536,0.08282115,-0.37541315,0.16661458,-0.33212486,-0.05919497,-0.004388119,0.2173272,0.40812784,0.20589273,-0.39201012,0.15087056,0.010854635,-0.32119253,0.04276467,-0.21239164,-0.42128396,-0.3397883,-0.007260021,-0.20042558,-0.88035387,0.011931422,-0.18676654,-0.2519856,0.40345445,0.26530075,0.1675506,-0.1719116,0.029454987,-0.30067953,0.05603273,0.09233486,0.19716638,-0.18071772,-0.45022547,0.21428195,-0.08776495,0.32744336,0.4382103
family#F3F41,-0.16287154,0.042483326,0.2682532,-0.34163022,-0.1984956,-0.41005525,0.2140455,-0.29819682,0.5181666,0.30613357,0.20543206,-0.24235736,0.12869678,0.017351957,0.1319794,-0.25163028,-0.043616712,0.079095,-0.23207794,0.061335523,-0.32114577,-0.5398141,0.23474345,-0.15985961,0.24326912,0.015169026,0.12984636,0.14658496,-0.35234502,0.15295194,-0.024847522,0.17390169,-0.029149331,0.30621323,-0.39587653,0.06064659,0.41512156,-0.036270216,0.094311014,0.34479308
family#F3F42,-0.4163085,0.016385784,0.28357163,-0.18748638,-0.19204146,-0.20779502,0.1825145,0.06916792,0.28951335,0.10446882,0.14853425,-0.111573,0.34050387,-0.13125992,-0.0954696,-0.2334139,-0.111493275,0.0013982309,0.028331084,0.1349242,-0.5127914,-0.6187876,-0.042379808,-0.15325671,0.29661047,0.35458657,0.10505273,-0.11633539,-0.23096307,0.1762813,-0.27514702,0.016235657,0.65576184,-0.21073934,-0.31430078,-0.092965096,0.047816962,0.07673435,0.13416718,0.12366168
family#F3F46,-0.20975459,0.15440649,0.26049128,-0.21168512,-0.19660303,-0.36205438,0.16696085,-0.20940344,0.5052121,0.20557784,0.10199329,0.022835959,0.20187855,0.03981508,-0.005721507,-0.17419608,-0.113373704,0.058749627,-0.24719858,0.10858248,-0.22017707,-0.5340382,0.054841235,-0.18416041,0.18267938,0.081299976,0.23912717,0.156448,-0.25114495,0.2294399,-0.12092245,-0.052690692,0.26939076,0.09653534,-0.39356816,0.08099878,0.4801525,0.02869882,0.29324663,0.32805318
family#F3F48,-0.3090481,0.17313379,0.2634338,0.13346212,-0.18428232,-0.31058964,0.1284106,-0.053861994,0.46962446,0.33234897,0.12493643,0.31308302,0.11463148,0.07360613,0.35310346,-0.08756141,-0.08077712,0.042623363,-0.5330181,0.097574666,-0.2230074,-0.31846792,0.32856667,-0.15390217,0.25191864,0.20444405,0.11701241,0.021676246,-0.45904604,-0.15043922,-0.23814936,-0.023034532,0.29101595,0.29860055,-0.46742526,0.20604111,0.29688907,0.088986866,0.6334128,0.4685429
family#F3F49,-0.10200971,0.046239506,0.21127254,-0.22292042,-0.2207251,-0.034161314,0.12773807,-0.3370872,0.29218355,0.45453116,0.24510741,0.3079946,0.04821417,-0.16431423,-0.31601384,-0.08722304,0.17595452,-0.24767782,-0.33211884,0.14342014,-0.22175328,-0.13248144,-0.070999205,-0.0030818586,0.16471161,0.40230218,-0.064594254,0.16785704,-0.29347247,0.21948116,-0.30098653,0.1960644,0.35428104,0.10054013,-0.052524466,0.3059705,0.33294433,-0.044142455,0.16257729,-0.048185702
family#F3F52,-0.09978778,0.07477858,0.39275452,-0.3128292,-0.14034191,-0.10837612,0.122786134,-0.26028216,0.19761004,0.47481695,0.27693912,0.33176327,-0.07490749,-0.35679367,-0.26638886,-0.06558268,0.123051606,-0.37461504,-0.38969857,0.32327878,-0.22026363,-0.18134874,0.051405497,0.010310816,0.0638052,0.22320847,-0.053535055,0.25311404,-0.27094758,0.2739407,-0.34610787,0.20438819,0.23474151,0.046750013,-0.18981531,0.36960068,0.28611714,-0.021881564,0.11661605,-0.2367401
family#F3F53,0.004241311,0.1576914,0.19898601,-0.3762823,-0.106891245,-0.16167991,0.55450755,-0.45915607,0.16936034,-0.15251277,0.28855285,0.030042112,-0.09405503,-0.2542773,0.021847192,-0.08945145,0.222407,-0.47583616,-0.015705157,0.1623835,-0.2283885,-0.49675253,0.09386859,-0.21010092,0.097570844,0.29451427,0.480004,0.09588712,-0.15092006,0.31236926,-0.191942,-0.040269606,0.21271524,0.5019835,-0.4489777,0.040086813,0.26620665,0.26079872,0.14884408,0.13526188
family#F3M40,-0.17152254,0.12688684,0.07035479,-0.29286215,0.18727852,0.10285626,0.04066073,-0.21970762,0.07861759,0.29641503,0.07958715,-0.26623076,0.012009285,0.044020772,-0.17358969,-0.24113446,-0.1913431,-0.434084,0.0019598976,0.07817774,-0.14551543,-0.5704609,0.21758403,-0.38670015,-0.13052386,0.4846561,0.31444418,0.4916144,-0.060544632,0.06411646,-0.15932056,0.1544393,-0.059735958,0.42026928,-0.3884593,0.06720257,0.42186445,-0.044464514,0.09591624,0.43825114
family#F3M43,-0.46417144,0.08086935,0.20851038,-0.2641444,0.25016978,-0.29195303,0.061668728,0.1280103,0.3151736,0.5413311,0.19781102,-0.0804461,0.17101012,0.032399688,-0.16944604,-0.29276776,-0.19681951,-0.41069782,0.044701952,0.04026495,-0.082000785,-0.63666517,0.11124696,-0.35006335,-0.28385234,0.16908331,0.17057224,-0.054320402,-0.22913244,0.23454602,-0.06613955,0.034012847,0.39185685,-0.052104842,-0.38599047,-0.13505019,0.30563173,-0.018950837,0.13535531,0.31713277
family#F3M44,0.063544534,0.08491613,0.11224459,-0.33370164,0.14028433,-0.023822552,0.2717067,-0.38478124,0.17183386,-0.2233839,0.27414396,0.004842906,0.1571264,-0.16028048,0.0010618553,-0.1259968,0.120894924,0.1300558,-0.049665175,0.3534241,-0.21609591,-0.6325852,0.17545964,-0.24010335,0.018982384,0.3960469,0.64363056,0.17775066,-0.10375239,0.19836947,-0.2209179,-0.0557996,-0.0011475915,0.59829545,-0.44403574,0.031249734,0.36012056,-0.3078834,0.19075616,0.06274056
family#F3M45,0.013853484,0.11572143,0.081103414,-0.24678716,0.32491976,-0.07138734,0.22554915,-0.2855836,0.1733588,-0.14784557,0.24399735,0.035649177,-0.019963775,-0.012495608,0.037255254,-0.08741671,0.07091796,-0.05147115,-0.00092819915,0.22304672,-0.22342592,-0.5475815,0.11504119,-0.13067618,-0.18677816,0.44669372,0.6363612,0.30274537,-0.030823443,0.20719603,-0.16898869,-0.09784502,0.11982156,0.47971115,-0.47045016,0.029134508,0.43646976,-0.16892257,0.19087927,0.2311511
family#F3M47,-0.3103675,0.23266906,0.11313918,-0.013228054,0.18723243,-0.14628601,-0.04131324,-0.048700046,0.012521024,0.13340628,0.22665478,0.2815508,0.0030201245,0.005176219,-0.17983708,-0.05913668,-0.18443915,-0.09851303,-0.17869519,0.15742128,-0.33680964,-0.28292483,0.20767672,-0.124722324,-0.102895536,0.34171456,0.39203402,-0.008927535,-0.13901746,-0.29817358,-0.392478,-0.08911679,0.36675626,0.1582335,-0.14737442,0.1106286,0.20290919,-0.12212046,0.5146063,0.36595097
family#F3M50,-0.2889334,0.051952,0.2545812,-0.1566246,0.20071624,-0.41134676,-0.035933375,-0.32238096,0.20334803,0.30571422,0.22576658,0.26290748,0.12372987,-0.034151487,-0.23899893,-0.11013031,-0.15835439,-0.36384007,-0.24824764,-0.051647827,-0.23306915,-0.3301874,-0.046808805,-0.2217151,-0.19862852,0.101491965,0.15867636,0.20403281,-0.19542597,0.1486295,-0.29454592,0.16686402,0.30569452,0.16112791,0.08073479,0.27718243,0.34404036,-0.04059865,0.18146193,0.23309201
family#F3M51,-0.35920313,-0.04976453,-0.05289554,-0.32449773,0.047667984,-0.0940385,-0.056661356,-0.018977715,0.07199197,0.07520161,0.32156157,0.18856196,0.05941038,-0.26192176,-0.2231955,-0.11111038,-0.032236792,-0.019536573,-0.12911247,0.4094481,-0.16692162,-0.35022116,0.3310184,-0.116687946,0.031645678,0.33815154,0.40625653,0.090085074,-0.2839531,-0.0007133093,-0.2584928,0.28985652,0.08371269,0.19646718,-0.52011067,0.48812816,0.30099052,-0.28512186,0.19185288,0.19970779
family#F4F55,-0.3625346,0.22453581,0.29034758,-0.2773385,-0.19518802,-0.30042237,0.28312483,-0.111826956,0.50223386,0.25008288,0.12511,-0.14281523,0.13489616,0.0019474804,-0.05347377,-0.23622355,-0.092555694,0.053334646,-0.22908214,-0.048611097,-0.20798084,-0.40893698,0.036215805,-0.069267265,0.23103115,0.111806415,0.13068679,0.07111933,-0.29501212,0.15351298,-0.064759016,-0.18747127,0.29909977,0.18462318,-0.43487749,0.2262135,0.3371324,0.035560638,0.25215057,0.5611365
family#F4F56,-0.29331866,0.14379404,0.09387948,-0.38970137,-0.17047527,0.03139265,0.247361,-0.25880212,0.29000235,0.32787824,0.23409672,0.32518417,0.042110182,-0.03140223,-0.15863048,-0.17880514,-0.10503141,-0.110026054,-0.16207631,0.077458926,-0.3142297,-0.25157413,0.16136512,-0.23367736,0.13766488,0.2771277,-0.023105642,0.1924839,-0.32953122,-0.17729992,-0.3351766,-0.06047189,0.28614664,0.21076632,-0.17523113,0.17862387,0.3923173,-0.05615116,-0.06530179,-0.2064105
family#F4F58,-0.33111715,-0.0025791097,0.14758575,-0.14378788,-0.13681333,-0.22428778,0.16180836,-0.13050579,0.34586072,0.37330693,0.24370658,0.34242266,0.022015855,-0.33196056,-0.17057076,-0.21466345,-0.10634353,-0.30292898,0.1568977,0.28785634,-0.11678521,-0.16030891,0.0025684247,-0.21795386,0.1493496,0.15572496,0.19941056,0.026714547,-0.4236111,0.18105088,-0.17968075,0.27346092,0.38564652,0.050412636,-0.36112678,0.43380365,-0.1069454,0.11603656,0.26137263,0.0818195
family#F4M54,-0.35658842,0.19717346,0.14523508,-0.18111928,0.20885155,-0.13933277,-0.05081307,-0.122309335,0.23654687,0.15669869,0.13623086,-0.11527011,0.06750337,0.051404495,0.10305965,-0.21298228,-0.12661204,-0.44962147,-0.049024075,-0.028811313,-0.19995572,-0.4271618,0.05906808,-0.12559089,-0.17390603,0.47839653,0.25299415,0.062017806,-0.1219181,0.037398856,-0.11837665,-0.17633605,0.18544048,0.14797485,-0.42363793,0.20353328,0.28236082,-0.018899892,0.26555037,0.6068694
family#F4M57,-0.28469318,0.07835319,0.21527165,-0.35126275,0.15730019,-0.25391063,-0.11711827,-0.123039745,0.32954717,0.26850292,0.12622666,0.27914822,0.11990376,0.045690577,-0.0049318452,-0.20515114,-0.20130116,-0.28198224,-0.17406884,-0.11468146,-0.12075451,-0.34717563,0.19002648,-0.24240573,-0.14475322,0.22440673,0.24829468,0.17364618,-0.17292674,-0.10621493,-0.23791577,0.005781297,0.17654082,0.23001534,-0.1946719,0.2456946,0.49256176,-0.012070477,-0.031945843,0.3279732
family#F4M59,-0.23957787,0.16728543,0.22780116,-0.36421728,0.08734275,-0.012443938,0.021306481,-0.12206749,0.056167807,0.3292763,0.17418508,0.27119353,0.14525725,-0.23566595,0.057803854,-0.2508371,-0.14037775,-0.35320807,-0.2868409,0.11106649,-0.21610178,-0.28183407,0.119721994,-0.22522008,-0.060397647,0.3302851,0.2746948,0.1962514,-0.1494417,-0.010508593,-0.15694685,0.29286802,0.17204839,0.10272096,-0.19378127,0.40236717,0.38989165,-0.06724644,0.17757323,0.23682334
family#F5F61,-0.29316527,0.12725794,0.20814791,0.1124183,-0.21112429,-0.21085304,0.17809083,-0.27775773,0.44967553,0.50373465,0.11409077,0.08024707,0.091266364,-0.008499249,-0.13722016,-0.25852337,-0.110093065,0.040855397,-0.28456947,0.10803952,-0.18516144,-0.574135,0.059350494,-0.06341702,0.17873217,0.40400338,0.17041521,0.22741286,-0.32974038,0.23816374,-0.29736403,-0.2885268,0.1962753,0.096588366,-0.15145846,0.018157732,0.35886088,0.06551568,0.5178186,0.45015708
family#F5F62,-0.13244233,0.21973519,0.00039479323,-0.36225197,-0.07638041,-0.20497572,0.3207897,-0.11732988,0.35476586,0.12624013,0.17349547,0.46695903,0.15873787,-0.27080542,0.25794086,-0.1405607,0.062403575,-0.32230178,-0.29646417,0.09491415,-0.35950452,-0.3799487,0.16973294,0.0011417455,0.08155577,0.21734817,0.03238246,0.081752166,-0.326628,0.31180763,-0.24071085,-0.089998096,0.36270395,0.2629661,-0.37720963,0.19636615,0.21426368,0.060196877,0.2142026,-0.18374908
family#F5F65,-0.27130893,0.17173252,0.41416785,-0.1669541,-0.2657481,-0.15017171,0.18412094,-0.21451995,0.33445203,0.16437504,0.12545301,0.33104292,0.11010274,0.04170357,0.03728976,-0.14328964,-0.071168825,0.080640994,-0.3435856,0.061606217,-0.27432603,-0.56837726,-0.024564378,-0.32396716,0.1348777,0.29346955,0.13853742,0.21926467,-0.30217588,0.20987444,-0.17172536,-0.031251404,0.31127915,0.22475365,-0.010900756,0.0768,0.3414685,0.01105792,0.28551733,0.41562077
family#F5F67,-0.22358717,0.13976492,0.41763857,-0.2974503,-0.18276376,-0.101604894,0.08719862,-0.086763896,0.37219405,0.36814082,0.08776126,0.42147696,0.23508517,0.010898626,0.16736238,-0.015319955,-0.16023186,-0.094733596,-0.2979077,-0.14690647,-0.21838523,-0.3680786,0.23924421,-0.26539126,0.16342594,0.4366415,0.18466522,0.09114723,-0.22520076,0.042611055,-0.17776403,0.230801,0.37548482,0.20412765,-0.09278844,0.22551875,0.4286525,-0.031237392,0.25594103,0.1813371
family#F5M60,-0.328574,0.19200382,0.30548462,0.14713234,0.18556866,-0.28829378,0.029183725,-0.21367826,0.17223047,0.40159938,0.23463216,0.09109826,0.11505566,0.063589394,-0.20552275,-0.20616572,-0.19689362,-0.31988606,-0.103166044,0.12596685,-0.3164218,-0.48339793,0.05910864,-0.21392256,-0.23868094,0.30211115,0.27708203,0.2550033,-0.15536126,-0.1097163,-0.22427143,-0.27397624,0.14374565,0.13584825,-0.3427486,0.050663292,0.2576181,-0.038669955,0.43336448,0.45864165
family#F5M63,-0.26685,0.17018574,0.261834,-0.11491166,0.007325094,0.00072199525,-0.07312425,-0.21919933,0.1581284,0.39168525,0.1567006,0.3481103,0.14149371,-0.23693147,-0.28533927,-0.1043735,-0.17055929,-0.39677554,-0.21480156,-0.0512352,-0.1979878,-0.3898399,0.04757209,-0.37257642,-0.029289206,0.20588753,0.34224766,0.09806544,-0.12841208,-0.0020173946,-0.2036392,-0.027693558,0.15051246,0.04192315,-0.34191045,0.4021222,0.43147957,-0.06170646,0.26088628,0.2511504
family#F5M64,-0.25710297,0.22679567,0.0074623358,-0.3117668,0.283426,-0.16586173,0.076454036,-0.18126512,0.17193455,0.07694874,0.22207192,0.4594893,0.082302324,0.10381839,-0.24709952,-0.1460882,0.07634728,-0.21580718,-0.30136913,0.087278396,-0.23051558,-0.33416474,-0.026147882,0.10138312,-0.2497669,0.24874647,0.16548388,0.07852116,-0.23715432,0.26182932,-0.32111183,-0.086632214,0.3059614,0.24957007,-0.32058612,0.11949825,0.27468994,-0.20085217,0.18481061,0.26964268
family#F5M66,-0.21052966,0.12728035,-0.0338111,-0.2735547,0.18509832,-0.32670596,0.0976461,-0.094364844,0.14538151,0.3246378,0.2829983,0.42245075,0.06987421,-0.06538877,-0.33100283,-0.009412499,-0.11460107,-0.05142784,-0.1362923,-0.08998393,-0.2568943,-0.3243445,0.25906536,-0.10038512,-0.28128442,0.10166086,0.31484553,0.0043885866,-0.25648022,-0.25702575,-0.24974371,0.23098151,0.29354182,0.10032614,-0.34962183,0.13928342,0.45104435,-0.25009876,0.14509235,0.10938596
family#F5M68,-0.28771687,0.06000914,0.33058807,-0.2934787,0.082193404,-0.14559351,0.040025398,-0.27718782,0.08343447,0.194868,0.29329392,0.25317377,-0.0021283515,-0.2147557,-0.16775371,-0.004067324,-0.18658693,0.043103233,-0.114805676,0.45076647,-0.2710888,-0.3310043,-0.056591522,-0.15379104,-0.08835824,0.38716206,0.50337774,0.23881073,-0.37776548,0.14324917,-0.24980578,0.42868674,0.040607225,0.13856255,-0.2875358,0.48229915,0.004697837,-0.2130234,0.19880648,0.023760496
family#F6F101,-0.1887847,0.18328406,-0.05448142,-0.13871092,-0.14807698,-0.23931223,0.09844704,-0.21735692,0.36891797,0.41438383,0.043607563,-0.02394575,0.16915418,-0.22179021,-0.25345352,-0.15134421,-0.09597745,-0.17034681,-0.30579212,0.25312728,0.00018603844,-0.29492822,0.15438274,-0.32289395,0.10357285,0.18589754,0.18005717,0.16971983,-0.37199512,0.10600846,-0.30096212,0.13410176,0.18131603,0.20608267,-0.30245176,0.3117267,0.31275427,-0.023776554,0.1502876,0.25138184
family#F6F70,-0.3530345,0.07213063,0.5537979,-0.16828477,-0.25552353,-0.057244323,0.13350418,-0.31909072,0.30901238,0.5898354,0.22949727,0.14880757,0.21587682,-0.03180417,0.11472522,-0.14245708,-0.12891006,0.1101641,-0.17864448,0.1666085,-0.4844929,-0.6405952,-0.0250238,-0.34512752,0.13456105,0.49004278,0.14150962,0.2927076,-0.23722008,0.14625789,-0.10256944,0.37771487,0.022630846,-0.032214716,-0.25029612,-0.18499734,0.27839234,0.06182241,-0.2611346,0.30086574
family#F6F72,-0.3941927,0.18141983,0.2969591,-0.3799784,-0.2661247,-0.20492376,-0.027210413,-0.098088734,0.34269702,0.2296228,0.06247583,-0.039193954,0.18162219,-0.014425061,0.22922462,-0.09298217,-0.08651935,0.12044341,-0.28261822,0.14012292,-0.26599973,-0.5921186,0.07799149,-0.12705818,0.12746513,0.19132781,0.087451674,0.10198541,-0.27461126,0.09136741,-0.18910488,0.15249713,0.39229432,0.15607475,-0.30527827,0.011886876,0.3137034,0.019534014,-0.021442171,0.37966025
family#F6F74,-0.3526819,0.07543427,0.3245476,-0.26930913,-0.1897364,-0.24193165,0.21343625,-0.2042099,0.24057479,0.34065813,0.044773377,0.07431377,0.111952014,0.009423353,-0.032910258,-0.07029624,-0.1561898,-0.1094018,-0.13721034,0.08566618,-0.096204504,-0.45581692,0.10309537,-0.18203765,0.11215459,0.28093687,0.18887138,0.15467198,-0.25152647,0.17482512,-0.16981144,0.24659707,0.18519038,0.099308215,-0.12520202,0.18350609,0.4827194,-0.024031412,0.33374512,0.26123312
family#F6F76,-0.25368634,0.1559245,0.24272645,-0.4127579,-0.16341212,-0.05182305,0.08219434,-0.18438447,0.24635424,0.3021093,0.020437533,-0.022390012,0.09347689,-0.17458335,-0.17067225,-0.09038441,-0.16213176,-0.17621759,-0.2565742,-0.024344053,-0.19081374,-0.46240905,0.12955077,-0.31945205,0.11677499,0.2140749,0.21734397,0.13008247,-0.28407755,0.061486375,-0.17474198,0.17417724,0.21762002,0.044798486,-0.17497669,0.36772993,0.37166268,0.035403475,0.24400917,0.23886316
family#F6F77,-0.31585503,0.28190425,0.18976705,-0.17594345,-0.16237509,-0.06519837,0.3257063,-0.067493394,0.15300976,-0.068046086,0.14792885,-0.1861698,0.10011982,-0.060971886,-0.0067089302,0.027489088,0.026079502,-0.048219137,0.2830787,0.3564045,-0.396002,-0.44812462,0.23270951,-0.0741252,0.15331338,0.4119774,0.017280698,0.27004245,-0.3362665,0.333574,-0.16974603,0.40897346,0.33677253,0.34076884,-0.2697308,-0.07259771,0.2104413,0.18943769,0.10495238,0.14880826
family#F6F79,-0.0126617,0.22462107,0.2731399,-0.27320963,-0.15525289,-0.1619554,0.29447708,-0.102015465,0.25353935,0.31659293,0.33463487,-0.16947322,0.06077579,-0.2963927,-0.111261494,0.025997581,0.17417361,-0.43796352,0.07909024,0.18324116,-0.2161273,-0.19029275,-0.07197143,-0.06182739,0.052793484,0.20189267,0.19011062,0.13273183,-0.25349846,-0.071144536,-0.23628384,0.1755298,0.32094562,-0.03029723,-0.34255087,0.16280785,0.24926083,0.14877976,0.21836096,0.092254594
family#F6F82,-0.31549948,0.22617207,0.26545063,-0.3793179,-0.18201293,-0.18727843,0.044316698,-0.15892644,0.3016635,0.40617996,0.060111642,-0.06828186,0.04046863,0.025519554,0.23664165,-0.10940475,-0.087651014,-0.13538797,-0.27667361,0.10593502,-0.07760787,-0.37914357,0.27765664,-0.15294212,0.20405246,0.30928472,0.2032468,0.10182853,-0.38246986,0.06949463,-0.23316218,0.1918493,0.10402544,0.15044774,-0.28857106,0.24849944,0.32611012,-0.026663134,0.30252326,0.38115156
family#F6F83,-0.24260177,0.11044898,0.31679106,-0.2960365,-0.09735208,-0.13143504,0.25531846,-0.15754966,0.2700372,0.115616366,0.28648663,-0.021430686,0.009631822,-0.35908908,-0.20432752,-0.08605772,0.013028088,-0.24592863,-0.246816,0.104276545,-0.20991713,-0.16630697,0.041340772,-0.24215811,0.13932602,0.2816223,0.17903963,0.09606236,-0.38390493,0.2539724,-0.20775127,0.112112135,0.46541592,0.13799512,-0.2253745,0.40001228,0.15848936,0.10252242,0.1618254,-0.005497217
family#F6F84,-0.26986396,0.30651346,0.027168302,-0.37060097,-0.18349917,-0.09589344,0.28659526,0.15102068,0.24265398,0.07832834,0.07278363,0.043839637,0.20322096,-0.0747615,-0.14391524,0.05624356,0.113154575,-0.049538556,0.27309832,0.29310742,-0.31524622,-0.51443493,0.43247458,-0.1760861,0.20303224,0.35441437,-0.0119474875,0.004488125,-0.24767895,0.3521843,-0.18219908,0.45462376,0.3263019,0.37870505,-0.4497221,-0.12791716,0.18616705,0.14928623,-0.15159123,0.14383772
family#F6F86,0.12760165,0.28438762,0.3358458,-0.33084434,-0.18438138,0.005983611,0.37750414,-0.3810241,0.17998171,0.22280735,0.29631805,-0.057725374,0.043057702,-0.3245472,-0.026256215,0.11936613,0.13918446,-0.41584924,0.31937644,0.30117664,-0.15770313,-0.20433371,-0.07329635,-0.33047357,0.116332285,0.3499549,0.1909042,0.26377484,-0.22612968,-0.043941,-0.22807574,0.4457064,0.28814536,-0.00014041772,-0.3707135,0.1294599,0.27796477,0.04854583,0.21402834,-0.021641882
family#F6F87,0.057873063,0.24945751,0.39807618,-0.3337793,-0.22764766,-0.09111588,0.2939267,-0.48499104,0.23626597,0.31193966,0.44268665,-0.05991039,-0.023685409,-0.096602,-0.081099495,0.1286916,0.1500881,-0.24626325,0.3874205,0.17174064,-0.29726553,-0.17366457,-0.020107128,-0.2481965,0.18343528,0.27398357,0.26016825,0.19514304,-0.21847273,0.066590436,-0.011398472,0.4385644,0.27977133,0.052241962,-0.3068325,0.14173433,0.21766756,0.12240785,0.2763944,0.21564339
family#F6F89,-0.109738715,0.20435353,0.061531868,-0.34228975,-0.09651888,-0.18057005,0.26390007,0.11253385,0.2243801,0.13608201,0.2807657,-0.05505716,-0.046857607,-0.3947175,-0.19040039,-0.0147283375,0.09403469,-0.32626832,-0.22691526,0.055040516,-0.2084259,-0.3147485,0.13820583,-0.12700918,0.14282988,0.36432302,0.19447093,-0.06624193,-0.19674486,0.060311705,-0.22802463,0.26044753,0.415139,0.24246736,-0.25366476,0.35595334,0.378173,0.02882998,0.38378254,0.14335026
family#F6F91,-0.08555604,0.23025538,0.075273514,-0.32832325,-0.12591286,-0.11330293,0.07940504,-0.18286465,0.43149287,0.3682539,0.034569144,-0.095796205,0.070158266,-0.25923222,-0.033684343,-0.08690134,-0.07601347,-0.18193556,-0.41017482,0.1494993,0.007570991,-0.43604657,0.15920699,-0.22403498,0.12688744,0.2717686,0.2533961,0.16254681,-0.34074542,0.08312967,-0.29985803,0.3521749,0.21919458,0.09242876,-0.2564032,0.23702855,0.33877188,0.040691648,0.18903615,0.279668
family#F6F93,-0.31509387,0.28392437,0.3883539,0.10434725,-0.18910593,-0.2722074,0.1729931,0.06851127,0.37510303,0.5044385,0.2674761,-0.12694333,0.20322032,0.013890709,-0.117259584,-0.14691898,-0.13884896,0.095078595,-0.25666556,0.23526348,-0.2220941,-0.325797,0.1807919,-0.28581256,0.22929084,0.061428472,0.06088598,-0.07452588,-0.29004073,0.23881267,-0.1733184,0.20756532,0.31979504,0.26656935,-0.18684907,0.17511867,0.26110724,0.021344153,0.411091,0.21780552
family#F6F94,-0.13642235,0.16248779,0.118896745,-0.20530827,-0.27054265,-0.11979695,0.44121692,-0.48617956,0.2462967,0.09926569,0.20189877,-0.007815614,-0.09441503,-0.02856218,-0.3227454,-0.18178584,0.11145824,-0.101850756,-0.3256971,0.39848384,-0.32345617,-0.11804815,0.14958337,0.005862047,0.30215412,0.2513915,0.119337276,0.16519974,-0.36719564,0.18740597,-0.09545003,0.13998154,0.19698335,0.10904058,-0.13713716,0.33241677,0.25095928,0.10013823,0.02417503,0.19093797
family#F6F96,-0.02745464,-0.10209754,0.24010882,-0.3295518,-0.16848284,-0.20205507,0.047723442,0.14147224,0.22447322,0.52645504,0.15833774,0.17897289,0.058527846,-0.45520794,-0.013058342,-0.295773,0.10908069,-0.40293,-0.042149268,0.27347428,-0.1621856,-0.14248092,0.26400825,-0.03230664,0.1269893,0.43893185,-0.07938689,0.028793424,-0.31002992,-0.22350621,-0.41014344,0.26898956,0.3071473,0.036977433,-0.44767904,0.3192989,0.28396565,-0.012971327,0.29779696,0.0043713003
family#F6F97,-0.057022966,-0.07660679,0.2453697,-0.34236988,-0.2720665,-0.1856321,0.1635979,0.19737227,0.29133245,0.5180253,0.3172871,0.23585516,0.036791496,-0.1815254,-0.24157476,-0.330655,0.12091228,-0.13053934,-0.07021704,0.08019787,-0.22439772,-0.0842104,0.04724731,-0.028725779,0.13582428,0.1252728,-0.09032243,-0.0007635951,-0.306168,-0.15299998,-0.34812483,0.307079,0.3969563,0.09777311,-0.38505265,0.42271906,0.3762168,0.022956865,0.088684484,0.25919187
family#F6M100,-0.13782227,0.10880947,0.4299528,-0.38992923,0.13674308,-0.0033092634,0.05434825,-0.39074433,0.015390468,-0.046496715,0.31477737,-0.11235482,0.15189876,-0.16524948,0.14504364,-0.09850849,0.20486479,0.0096845105,-0.40781477,0.3729785,-0.36502677,-0.10497574,0.13305537,0.04379438,-0.095589995,0.33558625,0.34126887,0.11778273,-0.18440808,0.08176937,-0.2900162,0.0993583,0.17667925,0.043390233,-0.348232,0.43805328,0.3438369,-0.25457975,0.18150724,0.083666615
family#F6M69,-0.5344044,0.095038235,0.04581921,-0.15530778,0.19180387,-0.40688458,0.13142195,-0.34218106,0.21888018,0.49672908,0.1502203,0.1700084,0.07246376,-0.049527112,-0.18234178,-0.19278787,-0.225127,-0.27468336,0.20810528,0.10708881,-0.1137736,-0.66318345,0.014987658,-0.46250072,-0.30729884,0.057160586,0.1725095,0.24554592,-0.34446815,0.13252692,-0.20095755,0.39006954,0.09354408,0.02100194,-0.39939222,-0.25968197,0.31662214,-0.044651352,-0.2263347,0.3714356
family#F6M71,-0.30370107,0.3000882,0.04158508,-0.17469405,0.23157129,-0.19775257,0.042389326,-0.0031449469,0.1331356,-0.05898066,0.25055414,-0.120229304,0.22628675,0.053880025,-0.09573108,-0.060161125,0.11486669,-0.21780118,0.2920539,0.18430516,-0.21716344,-0.4106572,0.11607683,-0.24180828,-0.35372296,0.30671304,0.041801315,0.008895331,-0.27041018,0.30073985,-0.14346491,0.3697143,0.40676963,0.39971852,-0.39934608,-0.12831847,0.26664948,-0.14918204,0.13844375,0.19624181
family#F6M73,-0.3323041,0.23014037,0.059034616,-0.25272375,0.10655006,-0.11705185,0.089701936,-0.22368152,0.09407386,0.31227726,0.30477282,0.0719108,0.02752025,-0.065218456,-0.24214195,-0.01842224,-0.048683506,-0.020421019,0.07414068,0.11230509,-0.27696365,-0.28686067,0.23922408,-0.20622598,-0.22939822,0.22860113,0.3935971,0.21766746,-0.24745299,-0.02203349,-0.15896827,0.2113505,0.078393936,0.052401207,-0.23475854,0.03607719,0.41072285,-0.25235683,0.32729694,0.1732046
family#F6M75,-0.28352544,0.09765315,0.06487153,-0.3560461,0.13666898,-0.18787363,0.16078898,-0.14657591,0.10477192,0.09746361,0.32514793,0.026601713,0.24719103,-0.23478512,-0.11861695,-0.054352023,-0.2077296,0.057896376,-0.30049825,0.27811012,-0.21071395,-0.36389777,0.027485631,-0.07451948,-0.062537715,0.13815773,0.36660403,0.045060642,-0.18905744,0.004682956,-0.19845565,0.25121483,0.34200326,0.3081213,-0.36954436,0.370268,-0.034643423,-0.19406012,0.20040746,0.07337861
family#F6M78,-0.36075923,0.18753591,0.16100734,-0.14400417,0.18298076,-0.34684256,0.030872952,-0.18559924,0.24143204,0.14602976,0.087153606,-0.22333153,0.08958626,0.06574436,0.007524466,-0.126623,-0.252541,-0.4194048,-0.05578887,0.24776667,-0.1055955,-0.49221486,0.3028715,-0.32111853,-0.20836195,0.12890436,0.17428608,0.10318426,-0.31871837,-0.06732112,-0.10766201,0.34938246,0.19106115,0.28559184,-0.3749477,-0.06088014,0.23210396,-0.01663668,-0.026676657,0.33612
family#F6M80,-0.13179687,0.19700314,0.13044582,-0.25751957,0.0855754,-0.15764144,-0.026375918,-0.17152445,0.23953483,0.3186613,0.10104917,-0.117137246,0.18952706,-0.24871294,-0.03490763,-0.041592978,-0.14941084,-0.34778878,-0.3830677,0.020737115,-0.14351799,-0.38635448,0.12333461,-0.24077375,-0.05302227,0.2956202,0.29501143,0.1984938,-0.25222105,0.029310152,-0.22328793,0.1374997,0.20719914,0.15295333,-0.2519315,0.33196712,0.3668031,-0.05344221,0.19071114,0.25703755
family#F6M81,-0.112989165,0.19904773,0.15974103,-0.2625515,0.19643094,-0.16062477,0.11306235,-0.14239216,0.13716014,0.37862837,0.31290093,-0.16803616,0.07427187,-0.04519879,-0.22226436,-0.01967226,0.07955217,0.06854406,0.08299368,0.23192613,-0.2903344,-0.11683766,0.12739135,-0.13045777,-0.10142334,0.21093464,0.30292302,0.1015932,-0.2634483,-0.12737744,-0.1725952,0.16088152,0.18626297,0.08714026,-0.33610946,0.11223595,0.3925436,-0.26272127,0.25958803,0.24584034
family#F6M85,-0.30217612,0.23849232,0.36277378,-0.49310806,0.23658805,-0.21927352,-0.055303596,0.014135854,0.40571347,0.25256023,0.14621104,0.14916171,0.1768846,0.12793496,0.0707721,0.00079473946,-0.15728574,-0.34015125,0.07067135,0.1596711,-0.120730944,-0.62531954,0.3744197,-0.2326526,-0.22453819,0.048670053,0.27432632,-0.07749574,-0.15670264,0.06403407,-0.18450874,0.45648128,0.16748068,0.35088304,-0.5583553,-0.024428153,0.18888605,-0.0032341331,-0.22059411,0.36718616
family#F6M88,-0.3243894,0.15289764,0.11545492,-0.22526295,0.12657306,-0.15668818,0.04693456,-0.36677566,0.2534626,0.33154964,0.048350774,-0.114873275,0.015700012,-0.052991495,-0.04475239,0.005266908,-0.15395641,-0.28160414,0.06772715,0.034671206,-0.00080155116,-0.32997552,0.081080414,-0.3441529,-0.12019101,0.21369277,0.31951755,0.23280826,-0.2614033,0.052544087,-0.30723283,0.38423437,0.21393768,0.092435636,-0.27296752,0.16831562,0.29265752,-0.015626721,0.26572704,0.3327922
family#F6M90,0.05330166,0.2213425,0.3574343,-0.37832955,0.07060975,-0.08648734,0.19314338,-0.4068058,0.06178984,0.1325671,0.36779815,-0.046908982,0.28411168,-0.16277128,-0.08960584,0.098664805,0.07049668,0.024701424,0.26959014,0.31934983,-0.38946855,-0.11832018,-0.0045400625,-0.2936992,-0.013934391,0.21158294,0.31073207,0.27267846,-0.14577001,-0.18717104,-0.09587536,0.41706064,0.18671924,0.12925096,-0.39055753,0.18579766,0.30548337,-0.36596373,0.26047543,0.0636507
family#F6M92,-0.30571347,0.23915377,0.07058135,-0.08052955,0.25271142,-0.15002306,-0.058726065,0.023395652,0.17172964,-0.23173918,0.13053863,-0.21700615,0.20148246,0.0776887,-0.12835325,-0.05801539,0.085252576,-0.3257468,0.29732352,0.230794,-0.34005946,-0.45164818,0.19755062,-0.09532531,-0.18444541,0.4446726,0.11108041,-0.082905404,-0.20070353,0.25647938,-0.23850968,0.4333356,0.33238068,0.31368142,-0.29602054,0.023086034,0.27484444,-0.27981612,0.3922046,0.18594469
family#F6M95,-0.42519552,0.044496566,0.2263524,-0.054121852,0.24549946,-0.26691326,0.013471095,-0.43777516,0.267956,0.12459306,0.1079392,0.18406127,0.015756242,0.1152235,-0.1617941,-0.30129018,-0.2067814,-0.34633029,-0.109692946,0.330643,-0.06737037,-0.22997068,0.1458425,-0.26782876,-0.14864938,0.27682713,0.23664002,0.25928947,-0.09504684,0.10677808,-0.14133961,0.09921611,0.16059443,0.30122426,0.02074387,0.31671676,0.3030398,-0.008112239,0.114850655,0.3326808
family#F6M98,-0.32005015,0.015877988,0.1976283,-0.29278335,0.1691988,-0.13852593,-0.15863757,0.02445291,0.17872348,0.35697043,0.08948584,0.25463262,0.21192904,0.05277286,0.001706022,-0.3309932,-0.1668759,-0.29608786,-0.31272364,0.090683736,-0.11517252,-0.22819264,0.078091376,-0.24877618,-0.278686,0.3871295,0.15197559,-0.13191962,-0.1352314,0.11600535,-0.30355895,0.3202092,0.31714112,0.2251508,-0.04151878,0.4232983,0.45551395,-0.050839495,0.15192801,0.3464231
family#F6M99,-0.29065886,-0.2059201,0.097750574,-0.24985531,0.06051282,-0.13814189,0.069540195,-0.46234503,0.101422794,0.077352546,0.2734989,0.1637553,-0.023153258,-0.22497547,-0.23860778,-0.40200675,-0.19778235,-0.08382202,-0.035355497,0.23192805,-0.22986205,-0.36711442,0.2255052,-0.19401705,-0.03042144,0.26516652,0.49333408,0.32766885,-0.34849918,0.10354847,-0.21430807,0.4389295,0.022784121,0.12613243,-0.35325235,0.55217993,0.16087261,-0.23200582,0.22544333,-0.04386538
family#F7F103,-0.3934726,0.112010114,0.026003335,-0.3245865,-0.24699435,-0.19202392,0.21525845,-0.28375766,0.31294334,0.367666,0.06787336,0.32814303,0.24574903,-0.008128457,-0.09677415,-0.08588948,-0.11034195,0.1343306,-0.0689259,0.13130529,-0.24950458,-0.6294315,0.07791769,-0.19243424,0.14563505,0.17932728,0.08052522,0.044773877,-0.23772822,0.3440166,-0.13643321,0.18356726,0.19016089,0.35922822,-0.3304693,-0.033186805,0.21998602,0.013310267,0.11114383,0.21326949
family#F7F105,-0.3861978,0.25812298,0.51135266,-0.016401911,-0.21077965,-0.34388238,0.12476094,-0.018423717,0.26044783,0.28636837,0.16176194,0.2107207,0.17198665,-0.029909668,-0.119578354,-0.06322653,-0.16961527,0.09038623,-0.36749738,0.31936523,-0.30025503,-0.2295298,-0.029066574,-0.06012889,0.37362874,0.19615959,0.20040622,0.045647427,-0.40726513,0.034174286,-0.24848261,0.7767056,0.30262038,-0.057789274,-0.1254423,-0.027652625,0.25744426,0.05364624,0.33651727,0.43593997
family#F7F106,-0.03317478,-0.0068318564,0.09503031,-0.13191308,-0.2371675,-0.028416928,0.30260685,-0.20434566,0.3103439,0.4150125,0.2895553,-0.18133928,-0.07420824,-0.13947363,-0.27031982,-0.02430212,0.074114524,-0.081017196,-0.24973764,0.10750791,-0.2681157,-0.10479375,-0.07703826,-0.044656467,0.2333815,0.46184295,-0.08287566,0.22803664,-0.2844709,0.18139823,-0.35785708,0.7858079,0.2510088,0.3666706,0.11067366,0.19390462,0.2753751,0.077909246,0.26005653,0.1815733
family#F7F108,-0.08805201,0.043893892,-0.038802527,-0.32535765,-0.26435828,-0.20200986,0.17475149,-0.21095861,0.30378398,0.15484704,0.34852338,-0.17272472,-0.037084747,-0.10396779,0.5769953,-0.11197721,0.20950846,-0.10765095,-0.2036919,0.1725974,-0.46253648,-0.40194178,0.48079938,0.08378729,0.2932675,0.29807937,0.11970781,0.08989107,-0.28639528,0.2136176,-0.22460145,0.21453379,0.44181642,0.100437045,-0.48998213,0.23078932,0.24721302,0.2526152,0.060734335,0.26592913
family#F7F111,-0.26796675,0.085248455,0.23019755,-0.41495657,-0.21201229,-0.19389221,0.12303435,-0.09639771,0.21580492,0.34652874,0.11207619,-0.1634301,0.26818645,-0.03829218,0.11326745,-0.12374365,-0.19118705,-0.13420744,-0.30587387,-0.12516394,-0.17433348,-0.37830234,0.24158776,-0.22330345,0.16455582,0.43896067,0.22964571,0.13383247,-0.17362806,0.10753704,-0.24429385,0.15145834,0.22436866,0.13075505,0.07390491,0.28174162,0.50379854,-0.024093896,0.2922264,0.06937917
family#F7F114,-0.02875415,0.117672406,0.48406008,-0.3109087,-0.14010257,-0.1155252,0.05855753,-0.19684456,0.25116456,0.28047648,0.13210166,-0.13654728,0.18434167,-0.21016665,0.08615045,-0.16587664,-0.14074488,-0.23547737,-0.41610962,0.077161424,-0.23041417,-0.3904647,0.20941858,-0.29887983,0.13077313,0.29758504,0.21640863,0.16963805,-0.2240895,0.05170373,-0.23367819,0.24501605,0.22910686,0.07251513,-0.007018181,0.37132397,0.31272665,0.068042204,0.23947394,0.15008314
family#F7F116,-0.22917998,0.2125758,0.12369276,-0.4162511,-0.2646833,-0.078482166,0.053981703,-0.29128873,0.23987356,0.45511106,-0.0009904914,-0.06667824,0.1644044,0.0013715816,-0.1481069,0.010218802,-0.16272235,-0.12798388,-0.21569775,0.18636517,-0.27920997,-0.40174675,0.3940869,-0.27046221,0.20085037,0.3069284,0.1972978,0.14671746,-0.2199824,0.032789897,-0.10096061,0.50034356,0.10927569,0.047711678,-0.17574418,0.26613823,0.30231202,0.01265092,0.04768981,0.23167112
family#F7F118,0.09745925,0.05193986,0.54131544,-0.260678,-0.1669362,-0.1206968,0.3051562,-0.017159553,0.10631131,0.11587548,0.38083398,-0.15864371,0.035056572,-0.24398232,-0.14938985,0.040665947,0.08049643,-0.43969,0.004126994,0.30779755,-0.20380805,-0.19188567,0.006693106,-0.22057347,0.058470264,0.32077363,0.22836345,-0.00437345,-0.41865346,0.17725006,-0.24300456,0.28050107,0.36706665,0.114855275,-0.30434206,0.4971661,0.1109612,0.25574854,0.22014238,0.015219777
family#F7F119,-0.061996132,0.031862132,-0.1535504,-0.29804385,-0.09580145,-0.05426022,0.27214915,-0.31667706,0.3080206,0.3935772,0.28670174,-0.07298559,-0.0063547296,-0.21197437,-0.24437703,0.09547763,0.13069475,-0.414853,-0.2149239,0.2620645,-0.07847871,-0.04410034,0.23421161,-0.002880165,0.040098615,0.43367642,-0.12321254,0.1659487,-0.31572577,0.13062643,-0.3115055,0.6855733,0.24392493,0.4529513,-0.4063445,0.22178456,0.24861246,0.050478622,0.20634647,-0.0033081945
family#F7F121,-0.14395875,-0.007888716,0.076408215,-0.5051344,-0.37944546,-0.18133637,0.29807404,-0.444194,0.31027848,0.18948197,0.23507038,-0.17375071,0.0707951,-0.09912391,-0.012799908,0.11537713,0.09079729,-0.13175774,-0.23043956,0.42233616,-0.27366617,-0.08592861,0.45338517,-0.037555054,0.24205838,0.28888637,-0.04744276,0.4009189,-0.33711678,0.11999444,-0.12040342,0.76124156,0.12392978,0.19608636,-0.32952765,0.2139408,0.26196936,0.099222474,0.03501081,-0.036969382
family#F7F124,-0.2711229,0.0875377,0.22758019,-0.21507707,-0.1848488,-0.34703517,0.05924472,0.06192177,0.61224955,0.33609337,0.09343629,-0.092256114,0.21749261,0.004786051,-0.032604627,0.009009468,-0.032141082,0.08006601,-0.35816976,0.22779031,-0.14212255,-0.436395,0.16238078,-0.15340377,0.28875017,0.15497786,0.13705985,-0.075608075,-0.271097,0.00071555446,-0.2563548,0.24174193,0.30651656,0.40941975,-0.24692832,0.12079014,0.29671046,0.036988214,0.019624371,0.37638903
family#F7F126,-0.16765998,0.19455546,0.23977388,-0.38301927,-0.15189184,-0.19177638,0.12745643,-0.12070516,0.11065027,0.27404293,0.1527789,-0.0066640405,0.10753254,-0.25657016,0.0057521476,-0.061452795,-0.1265723,-0.16010301,-0.26226032,0.15427668,-0.16831456,-0.41917104,0.12335795,-0.20012596,0.13994788,0.16830449,0.18185338,0.21506241,-0.11773189,0.0881179,-0.16240406,0.20661739,0.22507934,0.23308508,-0.12462413,0.41157714,0.37366286,0.002960483,0.23526838,0.22446443
family#F7F127,0.10487392,0.035814974,0.350735,-0.50593513,-0.19894865,-0.054190006,0.24635272,-0.41273376,0.41043955,0.31533554,0.31399798,0.034928404,-0.028129254,-0.08526068,0.00919033,0.15373582,0.08424985,-0.3186775,0.048220772,0.11758501,-0.37947193,-0.28653085,0.33010063,-0.16045405,0.28403753,0.24559455,0.17501241,0.29743895,-0.17202774,0.19120906,-0.05888692,0.15605746,0.1633123,-0.057740588,-0.30045596,0.31365633,0.3758062,0.24209733,0.15877509,0.15098353
family#F7F129,-0.12042842,0.06280696,0.30020288,-0.28968665,-0.15854391,-0.1713982,0.31041843,0.00072252005,0.28978825,0.08597703,0.28712824,0.11960875,0.03022734,-0.32317737,-0.16722792,-0.02889613,-0.05679965,-0.38582858,-0.08587642,0.11594478,-0.24585009,-0.39723846,-0.1203374,-0.30360287,0.15737759,0.16931587,0.16021013,0.036223512,-0.26343337,0.069949895,-0.22049576,0.147344,0.43474573,0.16825709,-0.18253024,0.3938568,0.06290024,0.025821436,0.21724251,0.040437482
family#F7M102,-0.4499258,0.114275225,0.35615116,-0.25704768,0.20650534,-0.19021527,0.03990943,-0.17147183,0.28030878,0.2590334,0.10476334,0.32674733,0.024952332,0.07279924,0.09930651,-0.07264859,-0.19593315,-0.41764048,0.02296451,0.104966454,-0.12629816,-0.59931785,0.111979485,-0.29515946,-0.29955494,0.26559395,0.21462354,0.3292316,-0.13689731,0.22673996,-0.060442187,0.19969417,0.12999108,0.3373889,-0.28707772,0.020665437,0.33904883,-0.03559943,0.16277674,0.21119075
family#F7M104,-0.47700852,0.29935002,0.090139896,-0.023797244,0.24420963,-0.16583909,0.13826087,-0.07221686,0.08595192,-0.090400666,0.1603371,0.27542964,0.041705724,-0.043163456,-0.2604777,0.010000629,-0.11111867,-0.29384822,-0.09000765,0.3566916,-0.3647439,-0.29201296,0.02554826,-0.10027354,-0.14860424,0.39584357,0.22162625,-0.05069995,-0.3093445,-0.2269982,-0.3183105,0.8179338,0.39596856,-0.1040184,-0.20043692,0.019952055,0.25136882,-0.13814649,0.36345172,0.38989335
family#F7M107,-0.4370176,0.024294099,0.29430673,0.0024869896,0.18326795,-0.3341055,-0.08126161,-0.18487912,0.22940682,0.3897148,0.26719108,-0.12438747,0.051437687,0.07567466,-0.30123335,-0.2037305,-0.17359161,-0.35714632,-0.21169358,0.13960975,-0.16703677,-0.39548114,-0.14816944,-0.3555481,-0.20252712,0.084750295,0.14800724,0.14639853,-0.21295725,-0.013508093,-0.306045,0.5755024,0.22033975,0.21396518,0.13245194,0.19027188,0.2563606,-0.07305878,0.28233123,0.35520703
family#F7M109,-0.44531816,0.15076889,0.25380826,-0.24007487,0.17678444,-0.1030269,0.015994929,-0.15358397,0.2012949,0.15453812,0.13959445,-0.2498857,0.025408976,0.068699196,-0.25432813,-0.100563884,-0.15673849,-0.5237704,-0.058677472,0.07527891,0.022004185,-0.3645086,0.08322813,-0.34517637,-0.30390826,0.19921295,0.20329961,0.13848026,-0.27151117,0.1107698,-0.24880081,0.24799123,0.28178012,0.3526417,-0.17862105,0.20655018,0.28224564,-0.031181782,0.15560606,0.53911805
family#F7M110,-0.29675975,0.044692017,0.031983383,-0.30250087,0.170752,-0.16544378,0.1263658,-0.19507916,0.15077706,0.37130398,0.3310023,-0.06321857,0.002922704,-0.10479184,-0.36580032,-0.055198207,-0.14711487,-0.084112324,-0.041860804,0.022015717,-0.21051267,-0.25889388,0.1630734,-0.19939712,-0.15928198,0.02532777,0.32323647,0.11611847,-0.26662213,-0.2973467,-0.31847116,0.07376318,0.33597246,0.13322459,-0.18260053,0.23349626,0.49794692,-0.25409815,0.23733875,-0.0025102433
family#F7M112,-0.3163304,0.03054495,0.26725996,-0.21246943,0.10738796,-0.07545815,0.07797194,-0.20653397,0.04327833,0.11765635,0.311416,0.07678741,0.07540876,-0.19069076,-0.14509866,-0.11062399,-0.23103526,0.031237803,-0.14425458,0.50271326,-0.2858275,-0.24825457,0.07287811,-0.24494235,-0.060729668,0.39111266,0.49119723,0.08681521,-0.43555224,0.14782235,-0.2616704,0.05289291,0.1338691,0.19579636,-0.5382839,0.47577852,-0.13619268,-0.23748976,0.13682324,0.2016755
family#F7M113,-0.14490722,-0.014229818,-0.24168484,-0.3000149,0.13946234,-0.14420402,0.026169062,-0.15907232,0.17230928,0.14263311,0.30972454,-0.24426182,0.2023285,-0.17638417,-0.5110379,-0.13401082,0.105941676,-0.012041909,-0.19303271,0.27625647,-0.191398,-0.21553537,0.3256961,0.021249225,-0.027190879,0.19391245,0.28358412,0.102054305,-0.28232205,0.18455093,-0.2927751,0.24929327,0.18760826,0.1829314,-0.5665289,0.3148684,0.43065697,-0.34989724,0.24819244,0.10401383
family#F7M115,-0.09734513,-0.0019794293,0.11309988,-0.4398781,0.29925215,-0.2164839,0.0648212,-0.30865854,0.32450905,0.36089572,0.27867243,-0.19888414,0.08748169,-0.016445033,0.008857737,0.07832708,0.08517519,-0.057245757,-0.19161116,0.2622915,-0.25368184,-0.109477274,0.55361736,0.05748927,-0.19710307,0.17580992,0.04507152,0.20323692,-0.29186046,0.0040925727,-0.094815046,0.7214702,0.09159959,0.29168078,-0.3754063,0.30463797,0.29723892,-0.2773246,0.053986948,0.008147738
family#F7M117,0.12570748,0.021122355,0.5720128,-0.28790757,0.15724853,0.10389585,0.18381225,-0.07630029,0.052332386,0.046232466,0.3028792,-0.09492246,0.26613066,-0.18444227,-0.08215777,0.012396775,0.07692929,0.21900721,0.0070447316,0.43349046,-0.29661193,-0.14196134,0.029344441,-0.23914923,-0.07897475,0.48382932,0.32369375,-0.04691967,-0.39415205,0.06520824,-0.35421598,0.24143338,0.28466293,0.21510532,-0.3954986,0.4716643,0.19557966,-0.35581356,0.125672,0.14621481
family#F7M120,-0.19353844,0.079423025,0.48566884,-0.3194773,0.10003556,-0.26156622,-0.1321628,-0.16243452,0.03913815,0.26755857,0.26897508,-0.06782532,0.20796615,-0.23508003,-0.0024913612,-0.11476471,-0.18209153,-0.33852714,-0.4561836,0.12545224,-0.2465454,-0.3408491,0.183255,-0.23941489,-0.0808113,0.113185726,0.22066411,0.23748563,-0.20052654,0.044487588,-0.21922453,0.39138672,0.18557991,0.004774191,-0.14006144,0.34619454,0.35183427,-0.07228894,0.15201928,0.20552966
family#F7M122,-0.38477,0.1408619,0.1106867,-0.3450475,0.20762345,-0.2177349,-0.037611898,-0.37800723,0.18728179,0.103688605,0.08054806,-0.10149456,0.11609219,0.08943897,-0.0882364,0.06966488,-0.2515291,-0.49920723,-0.1137084,0.26404148,-0.19186652,-0.3605199,0.27527934,-0.33149686,-0.33945397,0.24120276,0.27374357,0.46298733,-0.15404227,0.0016976567,-0.14569755,0.501935,0.13309762,0.059006233,-0.22108403,0.09105114,0.29066393,0.01643047,0.044445675,0.2972428
family#F7M123,-0.1459962,0.06247534,0.34505925,-0.2047717,0.33990705,0.008870772,0.015122965,0.22392528,0.13558698,0.3551509,0.2528865,-0.13658954,0.08795017,-0.016025756,-0.11686865,0.09224921,0.08630735,-0.114331186,0.05616226,0.29965657,-0.22906668,-0.21712565,0.09195452,-0.16042052,-0.20551027,0.47177556,0.3261763,-0.013850884,-0.15850599,-0.24607652,-0.31564355,0.29310036,0.35341665,0.36999902,-0.35086668,0.15179163,0.2508292,-0.23924983,0.075598665,0.3154176
family#F7M125,-0.012487616,0.038093127,0.15705012,-0.25552037,0.13601406,-0.09498602,0.13744192,-0.49009523,0.27447233,0.32100752,0.29530185,-0.010489759,0.1573405,-0.16797538,-0.23033947,0.023302972,0.015300373,0.012767472,0.075378455,0.28246135,-0.16130574,-0.18070853,0.20647973,-0.26526743,-0.038052246,0.30167156,0.29872343,0.12217205,-0.3270088,0.10392364,-0.14537585,0.15452075,0.2613351,-0.031228617,-0.30317983,0.33055228,0.17598689,-0.33019587,0.37000918,0.027809909
family#F7M128,-0.26898757,-0.05708779,-0.02655711,-0.3438688,0.13402052,-0.37382498,-0.011736114,-0.32014585,0.46131086,0.31701204,0.013181183,0.0114475945,0.14225745,0.06172679,-0.04909124,0.049150962,-0.27642605,-0.26333255,-0.15580016,-0.040346753,-0.11606899,-0.4866169,0.23100238,-0.26722655,-0.17136854,0.3103569,0.17788109,0.17495939,-0.06857022,0.07900399,-0.21647009,0.08970474,0.1212468,0.34921166,-0.32953656,0.15409715,0.4350511,-0.032593533,0.19416818,0.34088343
family#F7M130,-0.41335896,0.09635479,0.060816627,-0.3960884,0.06070959,-0.13029046,-0.061188664,-0.16714238,0.13351196,0.2569068,0.08082835,0.09823002,0.14245158,-0.24377725,-0.07282346,-0.03976516,-0.18866296,-0.37891233,-0.1467504,-0.066787735,-0.09122916,-0.39298108,0.1127993,-0.18487853,-0.046939783,0.31625786,0.3233451,0.43439567,-0.13880055,0.107061185,-0.2157851,0.17684808,0.18799521,0.0476112,-0.15869814,0.4174913,0.4203234,-0.053628534,0.22421744,0.27306303
family#F7M131,-0.114547364,0.02631927,0.38598767,-0.30656072,0.08866392,-0.111505516,0.036413927,0.16985926,0.0051463908,0.40029997,0.26174167,-0.1145045,0.28772777,-0.1742938,-0.23849523,0.05698158,0.13007839,0.02804981,0.07883922,0.36869577,-0.2263012,-0.14054607,0.09746611,-0.2538739,-0.06759819,0.43561837,0.30733386,-0.019765645,-0.30928263,-0.24691334,-0.3205309,0.2884921,0.33282152,0.25005996,-0.36091068,0.26445934,0.26539725,-0.29289964,0.28287348,0.07618055
family#F8F133,-0.303747,0.02390465,0.20847385,-0.34221372,-0.22136536,-0.45549774,0.18107721,-0.40444258,0.44105422,0.15831023,0.13690908,-0.26245224,0.2174541,0.029643852,-0.2070335,-0.36184996,-0.08210421,0.03686523,-0.21101233,-0.25977898,-0.3373556,-0.44656193,-0.07179926,-0.12892202,0.069979206,0.051235043,0.16022761,0.25276688,-0.22225532,0.21242207,-0.23189364,-0.073935434,0.34580016,0.033956647,0.0531026,0.31250218,0.33393678,-0.0019123848,0.24167882,0.23376743
family#F8F135,-0.44314083,0.12987223,0.39251524,-0.15241367,-0.25752723,-0.17221645,0.09110689,0.030315422,0.39087498,0.37026778,0.10256358,0.10158022,0.19205493,0.051775783,0.10950433,-0.33599663,-0.017716266,0.07476408,-0.5189999,0.02585627,-0.15949042,-0.35683382,0.18968584,-0.1763407,0.21259667,0.48451197,0.15893069,-0.02332806,-0.20645982,0.3066483,-0.24727905,-0.16696964,0.32229128,0.34812057,-0.17303252,0.2332662,0.28224567,0.02913813,0.24989474,0.43609804
family#F8F137,-0.2018796,0.04094337,0.112769075,-0.16788599,-0.16070206,-0.35516083,0.08450098,-0.36442247,0.32919183,0.18445376,0.07289998,0.34802878,0.21642673,-0.032290224,0.004204464,-0.27722618,-0.18464369,-0.10169608,-0.1897418,-0.08322995,-0.26397544,-0.38695547,0.26372316,-0.16968162,0.16112159,0.12046254,0.14667954,0.16674897,-0.3250056,0.09101478,-0.164928,0.046439003,0.28265205,0.20578724,-0.18862095,0.35376596,0.42007422,-0.014292877,0.00025544874,0.2562351
family#F8M132,-0.38448268,0.10084083,0.21641865,-0.28323686,0.19310474,-0.06007677,-0.025342388,-0.39960888,0.31611827,0.21530905,0.27090088,-0.2737272,0.07333811,0.037443984,-0.12045487,-0.3706289,-0.24906574,-0.43184218,-0.08087701,-0.22221021,-0.106108636,-0.42462337,0.042128365,-0.1797466,-0.3689882,0.48067424,0.29546675,0.2351674,-0.16887401,0.14664152,-0.15356216,-0.05598423,0.347591,0.082925215,-0.0719752,0.2175276,0.41477013,-0.0231793,0.18426979,0.3325189
family#F8M134,-0.46362326,0.08437997,-0.116221406,-0.0887644,0.24359159,-0.30648154,0.13638492,0.13828897,0.21354675,0.2979171,0.36832684,0.13293156,-0.05767241,-0.048660096,-0.2629958,-0.35218915,-0.1827744,-0.24368688,-0.10910141,0.10083272,-0.25624788,-0.22371206,0.16569953,-0.17423359,-0.4160373,0.011888262,0.12945166,0.043736774,-0.23668519,-0.19800977,-0.3365271,-0.19576162,0.20310521,0.39270172,-0.56873935,0.24271943,0.29308617,-0.16329497,0.18392776,0.3565764
family#F8M136,-0.25271708,-0.000980922,0.1584205,-0.27351865,0.16985817,0.013048175,0.066040464,-0.38217854,0.15207002,0.12257193,0.24024886,0.4078332,0.06378829,0.018974137,-0.10691066,-0.25356382,-0.10664865,-0.06382074,-0.08708885,0.036060274,-0.3013745,-0.18617111,0.19335549,-0.036767535,-0.20770745,0.41115814,0.35721824,0.3688924,-0.2118436,0.059249893,-0.32084656,0.007755949,0.3442795,-0.004629639,-0.22354442,0.33072767,0.41473824,-0.21487382,0.05455151,0.11485073
family#F8M138,-0.2330834,0.00049931,0.28473356,-0.3229885,0.11230939,-0.11868953,0.11016161,0.065215826,0.05496938,0.3817131,0.21920393,0.25702336,0.041585755,-0.2644434,-0.3887025,-0.22439426,-0.19425261,0.05539353,0.09650771,0.32994568,-0.2325544,-0.29811072,0.08556652,-0.07249041,-0.033549983,0.3153083,0.39418623,0.05771021,-0.2618162,-0.13216126,-0.32723752,0.2674511,0.21271425,0.3053016,-0.266581,0.4586659,0.043215506,-0.18194747,0.23187643,0.05754625
family#F9F140,-0.30308697,0.15278406,0.27822304,0.027479395,-0.24687077,-0.34815958,0.3212814,-0.36060852,0.3362103,0.33742616,0.22698697,-0.44024846,0.19452962,-0.05085203,-0.0717444,-0.5022469,-0.17756374,0.06432195,-0.31748188,0.21556397,-0.4246347,-0.3916747,0.101492435,-0.013271742,0.25662148,0.23469613,0.2623143,0.3221901,-0.28282705,0.10031529,-0.085305706,-0.084116384,0.17261004,-0.025270391,-0.11311295,0.3505315,0.19852297,0.07921799,0.20109738,0.33442682
family#F9F141,-0.21843395,0.15038484,0.071415484,-0.19869404,-0.2775252,-0.15154216,0.38169473,0.094012514,0.37976938,0.10371873,0.2159618,0.0432136,0.22376575,-0.09287427,0.05286455,-0.35418063,0.14090008,-0.063674495,-0.036316235,0.17485672,-0.31318545,-0.12921184,0.29477167,0.0729902,0.19828898,0.34103283,0.13425186,0.03880223,-0.28785387,0.14314796,-0.24106234,-0.3765503,0.4612008,0.46130726,-0.41728228,0.32323208,0.24309112,0.11872906,-0.067184314,0.10766362
family#F9F143,0.0076655815,0.18458714,0.34281674,-0.030428583,-0.32046133,-0.12997948,0.30726576,-0.36502117,0.18706493,0.5197865,0.2827087,0.6012296,-0.007964663,-0.04804572,-0.26091093,-0.24259545,0.09762908,-0.109266445,0.18321982,0.4795724,-0.39354113,-0.16293998,0.056547564,-0.11657871,0.23437458,0.24063665,0.18863127,0.085092485,-0.195998,0.03174201,-0.27683404,-0.1537998,0.30076173,-0.016117183,-0.21513805,0.14770453,0.21947579,0.13515982,0.0846187,0.18427627
family#F9F145,0.07418746,0.14010926,0.010801333,-0.15922587,-0.21492527,-0.22149709,0.36065856,-0.2886201,0.28235233,0.2708286,0.22710866,0.5891206,0.10120981,-0.12321057,-0.15446614,-0.15269335,0.09257106,-0.13724224,0.11570057,0.17961589,-0.344489,-0.09588892,0.1666031,-0.086595885,0.07858923,0.28554446,0.028984472,0.17488596,-0.2772831,0.24343207,-0.12309149,0.40421647,0.38309214,0.35680488,-0.37488928,0.12975976,0.28585592,0.044943124,0.13158777,0.10370789
family#F9F148,0.11010315,0.20572487,0.1084943,-0.31688067,-0.17030461,-0.17367895,0.32406458,-0.20062314,0.2652028,0.15280873,0.30771935,0.66690856,0.1478355,-0.2758913,0.09880138,-0.10263233,0.17348492,-0.408776,0.058474977,0.21454547,-0.37155515,-0.1154383,0.035103824,-0.06675964,0.1006821,0.29384556,0.024314456,0.3471812,-0.122498006,0.17300102,-0.19258282,0.4148549,0.27287295,0.22250587,-0.36481813,0.29934037,0.25802714,0.06836437,0.24900307,-0.058474608
family#F9F150,0.1850921,0.21416359,0.27113837,-0.31042275,-0.13775419,0.0012999633,0.26462448,-0.16175286,0.2648373,0.22664228,0.34219113,0.60335314,0.08115313,-0.26243266,-0.1725763,-0.15755253,0.185525,-0.44883764,0.019012023,0.18213123,-0.2538986,-0.14915521,0.030492974,0.019744478,0.14383696,0.4635064,0.07185927,0.20387226,-0.21323302,0.2383969,-0.16114113,0.40777236,0.21235554,0.23496395,-0.31210834,0.27175167,0.36208406,-0.027425291,0.27540794,-0.081688665
family#F9F152,-0.21635379,0.16072117,0.19191338,-0.2852515,-0.113225386,-0.23879153,0.19708903,-0.23141213,0.39504135,0.32949054,0.0887568,0.27218968,0.15714566,-0.23195669,-0.0490601,-0.17162664,-0.08929925,-0.16089442,-0.32068127,0.02586574,-0.06954558,-0.42177415,0.031263456,-0.2238197,0.1204165,0.20813574,0.21106856,0.07632811,-0.2983594,0.081004314,-0.25017357,-0.07950081,0.21667688,0.23094346,-0.12556224,0.3859458,0.3490111,-0.009296888,0.2128773,0.24101861
family#F9F154,-0.42249498,0.014188751,0.17325945,-0.23549788,-0.22995222,-0.29736432,0.1482297,-0.40105835,0.35758027,0.34500852,0.077353485,0.24675639,0.20295155,0.012338879,-0.10991915,-0.21176513,-0.12134809,-0.11838741,-0.106367365,0.012791982,-0.15848863,-0.38496977,0.19108897,-0.21642661,0.11817986,0.12822554,0.10489325,0.2615911,-0.32381195,0.059395436,-0.17364123,-0.12007085,0.24552755,0.21331263,-0.17016223,0.42654982,0.44670013,-0.03454256,-0.07718048,0.23848951
family#F9F156,-0.30897164,0.111145794,0.09330094,-0.30949154,-0.18329056,-0.13465212,0.047545724,-0.21549156,0.09002274,0.26606777,0.013182744,0.24591984,0.10798634,-0.21342567,0.020994304,-0.26464668,-0.11900241,-0.23462169,-0.41550824,0.094243124,-0.12918591,-0.43335015,0.16053899,-0.23490871,0.15575628,0.35989577,0.20114073,0.30052617,-0.31968305,0.13153705,-0.27633145,0.16277082,0.26592806,0.10549257,-0.0010109874,0.41141096,0.38496706,0.01709692,0.20030276,0.19722739
family#F9F158,-0.36910507,0.15249647,0.3024464,-0.27687275,-0.24228208,-0.30100453,0.16353324,0.028626349,0.2287704,0.2604301,0.14302874,0.080591604,0.14029957,-0.0024083394,0.50094527,-0.46352154,-0.06743164,0.05346315,-0.40654168,0.1834767,-0.37080857,-0.33158994,0.051644087,-0.091658324,0.095088065,0.2188958,0.1297403,-0.036657706,-0.27498466,0.008143263,-0.28908354,-0.13678488,0.21783727,0.23297419,-0.30471557,0.20879915,0.35510284,-0.0010513831,0.17493623,0.40678793
family#F9F160,-0.3048444,0.03450961,0.29956767,-0.09834254,-0.19180621,-0.34296232,0.07216403,-0.2667229,0.13755839,0.4221283,0.17171949,0.14749056,0.19507049,-0.030805314,-0.08932473,-0.30075875,-0.22089943,-0.058663856,-0.30768803,0.12860604,-0.23443192,-0.37380734,0.11545328,-0.15109155,0.17607117,0.13397735,0.21173516,0.18006212,-0.3526194,0.30981812,-0.2305225,0.14578214,0.14617638,0.21950898,0.078199066,0.31789652,0.2502257,-0.05148418,0.4099396,0.16685784
family#F9F163,-0.4884393,0.13168103,0.24799934,-0.21774882,-0.20541385,-0.15872687,0.09661433,-0.27329755,0.36061925,0.37733445,0.044997122,0.30355158,0.14956313,-0.0074226833,-0.12821482,-0.37670347,-0.13722365,-0.119076125,-0.29033828,0.23414867,-0.051643442,-0.15928888,0.17884126,-0.22738451,0.15976042,0.32098845,0.16602084,0.13856152,-0.41132015,0.122580774,-0.1849109,0.18738443,0.19585662,0.23670205,0.06685723,0.24692363,0.18414064,0.0026098173,-0.033246677,0.19511586
family#F9F164,-0.2408866,-0.097091526,0.13888435,-0.29200462,-0.15861379,-0.3068818,0.25438637,-0.059242394,0.14903343,0.22063063,0.30213892,0.24958996,0.07074186,-0.29261217,-0.15899871,-0.35410124,0.10751781,-0.40528905,0.0073761665,0.3221285,-0.110878885,-0.07624419,0.15353647,-0.14246216,0.052898817,0.028723562,0.0018514465,-0.031812876,-0.37270138,0.18737786,-0.23186389,0.36997345,0.3205387,0.1338539,-0.5043007,0.3306667,0.29253608,0.16608511,0.22337206,0.029089103
family#F9F168,-0.24443838,0.08645589,0.41004333,-0.21611457,-0.1926765,-0.29872853,0.053334333,-0.12079578,0.33318254,0.3518066,0.17293753,0.04410501,0.090068296,0.045230933,0.18313007,-0.35661578,-0.20900595,-0.13593587,-0.40157056,0.05527359,-0.285589,-0.38500187,0.25976557,-0.20825656,0.1612133,0.11680629,0.13532116,0.0632154,-0.25603777,0.15448557,-0.17051513,-0.12757127,0.089280486,0.2519489,-0.24383783,0.29609165,0.42707658,-0.07086642,0.22962919,0.28352118
family#F9F169,-0.34121132,-0.03974928,0.22407334,-0.28911287,-0.1258328,0.03183617,0.12249329,-0.3322379,0.3637745,0.020653524,0.31697646,0.27619952,0.07837708,-0.37589046,-0.1504953,-0.30476472,-0.028498136,-0.3227004,-0.18609647,0.29313537,-0.25816685,-0.3059657,-0.061765756,-0.12829158,0.123657115,0.44688874,0.20068973,0.033215597,-0.47604236,0.1053651,-0.19528128,-0.027516866,0.52267045,-0.09982462,-0.15493338,0.32346407,-0.03669686,0.13428709,0.22950415,0.12561409
family#F9M139,-0.37359738,0.1900397,0.114287555,0.13953538,0.1354931,-0.14288515,0.08563021,-0.42225698,0.24590138,0.35094112,0.15706836,-0.4376259,0.11973588,-0.024996731,-0.2014018,-0.43353546,-0.19781682,-0.43081638,-0.09203102,0.16986181,-0.23824668,-0.32386556,0.06544191,-0.27213383,-0.24555452,0.40140378,0.39417762,0.32973588,-0.3598839,-0.18873899,-0.21041644,-0.123246655,0.15713471,-0.0104696145,-0.22094683,0.3966105,0.15856336,-0.024770066,0.21334237,0.28853387
family#F9M142,-0.30373728,0.2080156,0.17787941,-0.014883395,0.1133089,-0.16248724,0.054756723,-0.035390113,0.25295004,0.17277911,0.1959219,0.017864626,0.21524805,-0.090540156,0.015825784,-0.29145268,-0.2299944,-0.5154842,0.065051734,0.1630327,-0.2152041,-0.498352,0.2090778,-0.21760687,-0.23454088,0.23822616,0.3213771,0.001281301,-0.19117029,-0.23656896,-0.17972317,-0.36522317,0.35879883,0.40197605,-0.4927581,0.27474004,0.28911114,-0.041074235,-0.119201824,0.2779731
family#F9M144,-0.15086891,0.253254,0.33557275,0.051171172,0.25238597,-0.1424897,-0.025318455,-0.072728395,0.3677114,0.3406586,0.12887204,0.58783185,0.061610598,0.11343491,-0.13145871,-0.21870616,-0.23722433,-0.30338463,-0.17749257,0.3376576,-0.21963772,-0.46221548,0.08617881,-0.20249571,-0.20151502,0.2661073,0.292378,0.1806972,-0.39215693,-0.1372348,-0.33299083,-0.07391189,0.21730772,0.101955734,-0.3106991,0.082004644,0.30857137,0.115192145,0.009124161,0.49629784
family#F9M146,-0.20836185,0.098382935,0.36318353,-0.17080426,0.13749333,-0.13199468,-0.057868835,-0.2845821,0.29000568,0.29395673,0.07671931,0.43955234,0.15705945,0.055206258,0.008980729,-0.2033078,-0.15369205,-0.33646986,0.060755726,0.12453375,-0.2721002,-0.31218272,0.16423246,-0.16345248,-0.2552861,0.28586587,0.2529257,0.113046825,-0.094578125,0.10874901,-0.26399046,0.349866,0.24716021,0.15270944,-0.14398438,0.27925012,0.3638784,0.014873198,0.110298,0.21649234
family#F9M147,-0.25271043,0.022169512,0.2036026,-0.40520445,0.059532948,-0.18925694,0.11508543,-0.039930362,0.070939824,0.018840566,0.38860914,0.19835268,0.09676022,-0.24123636,-0.32036456,-0.2210278,-0.09727245,-0.08412174,0.003204975,0.25790805,-0.2751208,-0.31427315,0.06233148,-0.07685217,-0.012570017,0.24320129,0.46223244,0.03492549,-0.28519177,-0.054231957,-0.20167792,0.58035207,0.108086064,0.08066747,-0.30880186,0.375666,0.19574735,-0.2442123,0.33820105,0.18522657
family#F9M149,-0.08208569,0.14280139,0.26835915,-0.2005866,0.050880156,-0.10491187,-0.14452094,-0.19682825,0.39721227,0.35474122,0.08358672,0.38824755,0.19072725,-0.18126939,-0.25697392,-0.12033727,-0.13051197,-0.32687142,-0.29744598,0.085008,-0.08408578,-0.31073272,0.092527375,-0.2956974,-0.07068753,0.24295251,0.26015207,0.10229976,-0.31102043,0.0028914958,-0.2098321,0.32950848,0.17378363,0.08960732,-0.30853692,0.32530767,0.39310205,-0.08237504,0.16043045,0.2665473
family#F9M151,-0.04503925,0.1266014,0.28195995,-0.37927398,0.1305098,-0.078348145,0.13484113,-0.3712234,0.01634109,0.45951703,0.28467122,0.34005484,0.18119942,-0.19177349,-0.20993425,-0.20412134,0.058730993,-0.0706191,0.28092185,0.18688037,-0.4023549,-0.16489951,0.061059926,-0.08027801,-0.06926118,0.3324043,0.29778495,0.2329111,-0.097143024,-0.11860395,-0.1680968,-0.14187895,0.14928429,0.026434181,-0.22742954,0.3786252,0.34327856,-0.3422897,0.41067067,0.008625448
family#F9M153,-0.07951886,0.10147597,0.13613956,-0.40295565,0.1590211,0.008812145,0.08791674,-0.3564559,0.053023215,0.39407998,0.19777526,0.38288373,0.088431895,-0.055751592,-0.09677499,-0.23578891,0.03296955,-0.11432503,0.20997353,0.21987239,-0.2969367,-0.16324675,0.21600507,-0.037884302,-0.2051582,0.45899132,0.2655971,0.36552313,-0.14011595,-0.13100258,-0.23011345,-0.16883169,0.2625698,0.025424013,-0.23098922,0.3648598,0.4170347,-0.32494578,0.09477871,0.09481145
family#F9M155,-0.32496694,0.033152338,0.28074998,-0.26207113,0.15755744,-0.15198019,0.13211569,0.042339183,0.036643483,0.23477602,0.43051073,0.35294485,0.16220868,-0.25672543,-0.26454207,-0.2657744,-0.14668182,0.02924361,0.09154671,0.25851917,-0.22573228,-0.28305593,-0.0026863138,-0.1318209,-0.045384146,0.10282002,0.42859164,0.028843025,-0.35158622,0.17540492,-0.23161457,0.11389638,0.2374021,0.19072458,-0.40924227,0.5077933,0.05390752,-0.21569677,0.27078098,0.15224707
family#F9M157,-0.21118441,0.1367203,0.12666179,-0.18937239,0.20680617,-0.11799771,0.13387974,0.05468968,0.21485482,0.17131412,0.26083708,0.01889869,0.07917773,-0.028231137,-0.14341909,-0.47617805,0.07264448,-0.3941997,-0.131741,0.258151,-0.19258913,-0.015209203,0.07219262,0.053639393,-0.35123792,0.36255366,0.15757117,-0.00016907463,-0.27466482,0.10629359,-0.21989647,-0.3251558,0.31534177,0.32338607,-0.5013487,0.30761978,0.44215772,-0.2434681,0.16103698,0.19664165
family#F9M159,-0.27226338,0.03109258,0.024386307,-0.108675025,0.21691921,-0.064411566,0.23454298,-0.38175634,-0.07647503,0.39801732,0.2638279,0.24258757,0.06688034,-0.044996157,-0.2732298,-0.36152342,-0.0425163,-0.011459323,-0.10799755,0.27575642,-0.30951852,-0.120225504,0.20324202,-0.26445374,-0.25078797,0.40226817,0.23065239,0.117675416,-0.31895038,0.12936299,-0.23204996,0.03035925,0.2650655,0.21443969,-0.02569541,0.19036603,0.18261315,-0.31048468,0.41004184,-0.06488601
family#F9M161,-0.32298574,-0.07009609,0.21306166,-0.3036057,0.096850574,-0.09306953,-0.102277435,0.0020582937,0.013386251,-0.20446295,0.35574764,0.18231174,0.12876947,-0.25981283,-0.1535172,-0.27080873,0.07143706,0.02857584,-0.32359812,0.45960203,-0.21793826,-0.31752726,0.18245766,-0.012411606,0.000572036,0.37523553,0.47272485,0.056198575,-0.35861105,0.019465832,-0.2693734,0.21704437,0.24938567,0.023407135,-0.506291,0.47327188,0.42668772,-0.16910833,0.042982586,0.28915438
family#F9M162,-0.23030521,0.02664023,0.1083642,-0.27546558,0.27296388,-0.19461216,0.03389441,-0.29258746,0.030930934,0.34301746,0.31613097,0.33167794,0.15339504,-0.055599917,-0.1563351,-0.4223375,0.0260339,-0.05944853,-0.14350861,0.14909749,-0.53385997,-0.042685214,0.27505106,-0.10038592,-0.25001913,0.25651768,0.26673076,0.38780436,-0.15003315,0.044714592,-0.14879902,0.07544066,0.2686276,0.06326278,-0.010197946,0.2569484,0.17955174,-0.22149473,-0.0059237466,0.11188902
family#F9M165,-0.25288263,0.071828544,0.26224315,-0.33907324,0.10296441,0.07289123,-0.1606788,-0.17543331,0.06528581,0.2675185,0.10420308,0.14154391,0.14146928,-0.23513542,-0.017166298,-0.23584734,-0.0885044,-0.3275027,-0.43732116,0.17094865,-0.25106707,-0.33004528,0.18744116,-0.24874102,-0.019887207,0.37128958,0.26478663,0.14465941,-0.23758069,0.05569862,-0.29239985,0.27442473,0.16332586,0.076756954,-0.1385437,0.4197743,0.3827472,-0.064367965,0.18389554,0.2189702
family#F9M166,-0.19597666,-0.13904934,0.2999636,-0.22822362,0.10848339,-0.024413515,-0.021150861,0.024869494,0.038211286,0.06044577,0.2833619,0.2645832,0.24156097,-0.19116576,-0.24672052,-0.34608015,0.16760162,0.11536694,0.08998354,0.33586976,-0.3253685,-0.05481677,0.22768666,-0.20541063,-0.07870545,0.41148844,0.16444474,0.03107694,-0.32925898,0.06988141,-0.37892547,0.33676496,0.19641522,0.16641335,-0.4926398,0.39934447,0.4609034,-0.27501854,0.23053245,0.19643739
family#F9M167,-0.1720462,0.10631125,-0.023233011,-0.19377373,0.22812639,0.012510558,0.082659476,-0.012063706,0.19863723,0.32526115,0.24853246,0.010310287,0.09993589,0.049759284,-0.18678427,-0.37736732,0.12246909,-0.13448335,-0.09685574,0.18738203,-0.2641019,-0.10467009,0.21999261,0.020622969,-0.17326963,0.3701234,0.18193613,0.00703191,-0.23176515,0.2554372,-0.3508553,-0.30495444,0.1472484,0.42911208,-0.42647493,0.32535532,0.46374083,-0.15359628,0.22130625,0.0041339896
family#F9M170,-0.33448687,0.05672879,0.23107892,-0.3789916,0.061981082,-0.35607365,-0.025424667,-0.16376625,0.037441373,0.22900659,0.14333926,0.18031712,0.111765735,-0.27910852,-0.10217328,-0.22689915,-0.16279252,-0.3614515,-0.20479487,0.12942326,-0.107601315,-0.3458471,0.11524957,-0.20882294,-0.046150915,-0.01651542,0.24328205,0.21591951,-0.14073573,0.027736284,-0.26127273,0.09534767,0.10116779,0.154556,-0.17203186,0.39650562,0.36964184,-0.088074505,0.16541132,0.26067078
family#Father,-0.44746482,0.3363523,0.35203946,-0.20914112,-0.37290755,-0.17480315,0.075732976,-0.05553461,0.07836267,0.05817473,0.02913461,-0.027849536,0.44713515,-0.65408295,-0.35589048,-0.4473172,0.31975535,0.08419417,-0.6202975,-0.12837417,-0.073975734,-0.6724599,-0.12848967,-0.2663403,-0.4795643,0.30095404,0.09821696,0.29850474,0.102828056,0.07118916,-0.04828556,0.10926846,0.064216375,0.70011735,-0.25192884,0.24094105,0.031664874,0.12108336,0.34831575,-0.10112323
family#Female,-0.36733186,0.5715863,0.24743865,-0.07533775,0.5333818,-0.26347613,0.37126356,-0.56704205,0.16045871,0.088758975,-0.06505183,0.16167225,0.39291638,-0.28894186,-0.1435091,-0.44748667,0.18196982,-0.19482034,-0.2996998,-0.0672306,0.11839915,-0.6167675,-0.20469755,-0.16549353,0.69099134,0.09492904,-0.20115831,0.24183014,-0.11887531,-0.2858626,-0.3286473,0.18023522,-0.3060026,-0.022761837,-0.17500523,0.34986228,0.03196457,-0.12055103,0.045365367,0.10357405
family#Grandchild,-0.4861561,0.2238574,0.11212714,-0.3522921,0.12712824,-0.12982495,0.31732386,-0.31301397,0.38726056,0.05198402,0.024901323,0.04663596,0.32502717,-0.5729339,-0.19545254,-0.27455333,0.018731743,-0.05061465,-0.26660708,0.20953022,-0.2925888,-0.26269144,-0.08422964,-0.13960682,0.0075235143,0.46338096,0.18574862,0.17560929,-0.01322516,-0.028972117,-0.29921234,0.17518507,-0.19044991,0.1376463,-0.041556172,0.24033163,0.43698007,0.27983913,0.19094744,0.26130494
family#Granddaughter,-0.15147857,0.5896191,0.28717446,-0.15739451,0.22792941,-0.12419311,0.3544364,-0.01565595,0.08275423,0.010621257,-0.12688367,0.06790521,0.82090664,-0.17088366,-0.25047302,-0.64126784,-0.1854804,0.1296349,-0.40385425,0.26256022,0.17403112,-0.22159246,-0.16775902,-0.36903897,0.25604436,0.2612564,0.055966754,0.4460913,-0.011819126,-0.02963534,-0.58817947,0.38138956,-0.094915874,-0.26948413,-0.24061298,0.32684815,0.4534706,-0.18311906,0.28230244,0.03125673
family#Grandfather,-0.6280088,0.3479092,0.370146,-0.37110886,-0.3046357,-0.4460621,0.17364928,-0.029330889,0.039134983,-0.020401506,0.021323476,-0.0258332,0.49228334,-0.6854698,-0.22532845,-0.3812018,0.28832704,0.10590082,-0.57142836,-0.2479714,-0.19959946,-0.57798964,-0.21106674,-0.26820645,-0.34862506,0.21125421,0.16642156,0.6077753,0.051219717,0.2211035,0.023889834,0.12960483,0.13873771,0.599744,-0.18518342,0.09224608,0.19725348,-0.06024262,0.23730774,-0.1675288
